1227 64
3893 0.1242595 -0.19245404 0.12448312 0.23640658 0.06568125 -0.097704075 -0.10972509 -0.037591886 -0.32108703 0.13778631 -0.07962264 -0.1155529 -0.004110704 -0.1611411 -0.07015748 0.3160457 -0.042752426 0.013731046 -0.11015971 0.44748217 0.1734592 0.2751321 0.12499899 -0.23417363 0.090299346 0.021960197 0.012046711 -0.06016545 0.043315213 -0.1675634 0.029690359 0.008949241 -0.06128076 -0.06633408 -0.01831224 -0.027141964 0.25306296 -0.05141489 0.09538671 -0.10502916 -0.07778569 0.03309455 0.0018154237 -0.0045356327 0.11840064 -0.121315636 -0.13540605 -0.25267664 0.11243945 0.05597377 0.018184401 0.029374713 0.1348866 0.06215215 0.06669862 -0.052901797 0.029147584 -0.20350802 -0.15112077 0.08861289 -0.22008757 -0.19471997 0.0737307 0.10211633
PROTEIN:3897 0.13951452 0.035980795 0.22305813 0.115617655 0.22271125 0.041222528 0.7001632 0.21303894 -0.065041676 -0.049861737 0.09992169 0.24357148 0.26980498 -0.21085146 -0.21949497 -0.13419332 -0.034650896 0.35193145 0.18159962 0.7707863 0.1414744 0.46719247 -0.041870806 -0.44132826 0.30513772 0.43968073 -0.07269515 -0.04657892 0.2113073 0.18195319 0.28060186 0.080224924 -0.11027877 -0.31047592 0.091149725 0.19853915 -0.48409456 0.10290931 0.17175418 0.06997592 0.19893445 -0.1038082 -0.019917607 0.18731238 0.015539715 -0.24912494 -0.10484439 -0.42988735 -0.3395276 0.070778504 0.1590024 0.20021541 0.2772723 0.5142996 0.11598839 -0.10352893 -0.13676311 -0.2545017 -0.037205387 -0.30785966 -0.09871513 -0.0052041067 -0.3660718 0.42292646
PROTEIN:6839 0.10683647 -0.10270731 0.21762788 0.023313327 0.24136578 0.14761594 0.58888227 0.15965807 -0.12635534 -0.135409 0.18702067 0.26965368 0.24947199 -0.090094835 -0.24567312 -0.19545233 -0.08194819 0.3500326 0.20039214 0.75987846 0.12309025 0.4172633 0.006929301 -0.49068743 0.33367524 0.44281852 -0.17451586 0.05226243 0.26490995 0.089728504 0.21058148 0.0902817 -0.11057556 -0.33238477 0.05041872 0.24673556 -0.4018395 0.17217535 0.14984448 0.05370197 0.18746758 -0.13303229 -0.0049524037 0.09572033 -0.17736842 -0.21964093 -0.2218728 -0.37724525 -0.32716808 0.30700868 0.13004622 0.25270656 0.25236917 0.48542306 0.054704595 -0.22263435 -0.254842 -0.3182612 -0.09639852 -0.22261432 -0.095894955 -0.13477945 -0.35477415 0.26550505
9604 0.14204645 -0.24403687 0.09649528 0.24684301 0.112278804 -0.2003253 0.05854228 -0.016041294 -0.42351365 0.25303835 -0.055427056 -0.13781372 -0.02869181 -0.09925918 -0.13509989 0.23447354 -0.0826966 0.08603433 -0.17517924 0.44185397 0.19223264 0.13058506 0.095170416 -0.18823487 0.08041783 0.04323813 -0.10202237 -0.08941209 0.05924282 -0.26942545 0.09538543 -0.0088909175 0.010728348 -0.087621205 -0.12435098 -0.03426675 0.20127748 -0.10477958 0.10330334 0.005766283 -0.1269057 -0.057255313 -0.086426266 -0.03769571 0.16110857 -0.13877143 -0.072181284 -0.20528731 0.024451742 0.12606595 0.06342386 0.029071266 0.09593576 0.014826239 -0.033155087 -0.0048410455 0.057497807 -0.13012688 -0.26464546 0.011467886 -0.2605739 -0.10587233 -0.03714983 0.15699819
966 0.11716513 -0.18869095 0.14567514 0.11699567 0.11703049 -0.20352869 -0.103610575 0.0048595453 -0.25800934 0.23536637 0.03711723 -0.14841999 -0.0292401 -0.015906913 -0.096370764 0.33770546 -0.15139602 0.015275373 -0.1285773 0.43061623 0.22921 0.2223298 0.053436875 -0.18773857 0.12251388 -0.026997516 -0.011566277 -0.0807654 0.020460077 -0.30583423 0.1172474 0.005700004 0.009537469 -0.08543536 0.01793624 -0.06429029 0.35506365 -0.06569026 -0.0018033221 -0.02019323 -0.090363115 0.02093373 0.055573214 -0.043576192 0.06524451 -0.072468124 -0.023317259 -0.351721 0.060088348 0.11453893 0.10957114 -0.08315917 0.0816823 0.15288557 0.057595927 -0.1200139 0.02434065 -0.2598484 -0.17991257 0.046396814 -0.24073097 -0.15331341 0.13651967 0.1351741
9904 0.13615234 -0.38050115 0.13104106 0.17097177 0.088667676 -0.19501995 -0.068539485 0.0108006345 -0.22072013 0.18245524 -0.0563683 -0.09628257 -0.11579224 -0.08762043 -0.06373169 0.218477 -0.121026054 0.07184611 -0.09931241 0.41808763 0.15142186 0.23434092 0.2122406 -0.34459385 0.07761313 0.08656567 -0.047906615 0.095713936 0.058479954 -0.18576321 0.13780427 0.0867432 0.08971621 -0.09252824 -0.2386987 -0.081619486 0.21998945 -0.10223213 -0.01875883 -0.08322826 0.044815194 0.11468474 0.15654266 -0.0011776689 0.08746347 -0.1545446 -0.07375472 -0.12010804 0.139684 0.16349074 -0.039363448 -0.24736057 0.1010631 0.025177432 0.045515772 -0.04896376 0.040663637 -0.16997735 -0.07101816 -0.014581916 -0.32817063 -0.13851468 0.041391358 0.099835366
9671 0.13599336 -0.30157077 0.07996588 0.13045287 0.08793349 -0.23111707 -0.10894441 -0.21093424 -0.23151577 0.18913658 0.101538174 -0.26384315 -0.12215984 -0.08712272 -0.05766385 0.31443954 -0.094883405 0.076918475 -0.22106276 0.30953225 0.14591199 0.22935429 0.16472898 -0.29855156 0.050885163 -0.018866519 -0.0680065 -0.15307572 -0.00888699 -0.17525406 0.049089883 -0.062216338 0.005323156 -0.08792709 0.0015747541 -0.08626603 0.12552966 0.0040700138 0.106263325 -0.01372946 -0.046453416 0.01342836 -0.0628891 -0.029293329 0.16142567 -0.16807684 -0.097697645 -0.17797525 0.11222541 0.12531143 0.122353435 -0.053786136 0.07532251 0.09538607 0.03604044 -0.040676333 0.0242024 -0.21864298 -0.14963451 0.09190548 -0.2229113 -0.13868496 0.01207416 0.27383065
3995 0.107619695 -0.25199828 0.21880701 0.11739935 0.2507499 -0.105775274 -0.0541414 -0.10977293 -0.40048662 0.048638523 0.015247305 -0.17902038 -0.005229912 -0.2115725 0.028845632 0.4385026 -0.080048114 0.02793929 -0.028743487 0.39947262 0.08758928 0.31213117 0.18353711 -0.30867493 -0.016704325 -0.003006827 -0.10712431 0.15806805 -0.17366523 0.08082498 0.1277714 0.083318934 -0.003931134 0.05668082 -0.064643756 -0.099101685 0.08815602 -0.07657196 -0.066019356 -0.16559461 -0.07555051 -0.14026088 0.03211564 -0.018351754 0.22714779 -0.27371183 -0.10082067 -0.021327907 0.05212925 0.19454297 -0.07534763 -0.026918093 0.042318698 0.030109962 0.117502734 -0.12014497 0.094029345 -0.11765788 -0.09720776 0.028342899 -0.27992022 -0.09373249 0.01945583 0.11046485
9672 0.16254304 -0.29981753 0.15099783 0.179918 0.09047026 -0.103806786 -0.07317737 -0.014486494 -0.28718203 0.22497979 0.0013345595 -0.090912335 -0.007962068 -0.1805133 -0.2008487 0.32486758 -0.091741666 0.085327074 -0.1647377 0.35375613 0.22456543 0.18023469 0.16483675 -0.19010319 -0.010709851 -0.028625479 -0.073044404 -0.13871023 0.08560623 -0.2888535 0.102845095 0.03909488 0.08901661 -0.13535927 -0.09675222 -0.0216531 0.25900814 -0.06114604 0.009099514 -0.02286905 -0.009778923 0.0021844283 -0.05002368 -0.053822555 0.1762477 -0.013307015 -0.063899375 -0.33732027 0.10960333 0.11177308 0.15106843 -0.006130101 0.16878949 0.2368545 0.031792723 -0.06396615 0.07373521 -0.15106076 -0.11241923 -0.011808165 -0.16223745 -0.07307778 0.042481244 0.1309511
PROTEIN:1326 0.033301454 -0.076216795 0.3573293 0.089412175 -0.11809263 -0.21611233 -0.072938316 -0.21975315 -0.17646289 -0.010485895 0.05188743 -0.11407253 -0.25699127 -0.2218394 -0.3495993 0.08034784 -0.3006606 -0.08818629 0.016179081 0.47413394 0.26546022 -0.10108478 0.27553365 -0.037607722 -0.16358839 0.2782625 -0.39345777 -0.08063599 -0.04431181 -0.09092422 -0.017256442 0.30293873 -0.2953211 -0.057304285 0.23770958 0.05798617 0.13033296 0.29925886 -0.032981526 0.14411867 0.43367988 0.1373812 0.020543067 -0.043852866 0.11381581 -0.08158751 -0.10049448 -0.022888664 -0.15053613 -0.18729325 -0.09439352 -0.08171956 0.20447113 0.04910315 0.33297828 0.07667931 0.20982388 0.17132661 -0.328979 0.03487569 -0.27183938 -0.41539696 0.03506992 0.07212359
PROTEIN:19246 0.0317803 0.0025173917 0.36702472 0.11378135 -0.016924486 -0.18926355 -0.11252674 -0.14044394 -0.08445146 -0.12931862 0.19631533 -0.059698883 -0.33067495 -0.13109212 -0.30514956 0.052724212 -0.33449826 -0.11461032 -0.03827344 0.3895141 0.1366312 0.019405 0.41852653 -0.17202696 -0.16669624 0.19475637 -0.403328 -0.09320948 0.028723255 -0.085778505 -0.008632842 0.25604126 -0.2981512 -0.08844681 0.16169275 -0.047703356 0.105061114 0.17122479 0.024474597 0.10868104 0.51987463 0.15323772 -0.04299241 -0.006962743 -0.013815068 -0.1582136 -0.03257116 -0.008099104 -0.15968364 -0.20558304 -0.18326102 -0.13116048 0.18412268 0.09703041 0.18413296 -0.047844768 0.17134158 0.08564718 -0.26936227 0.05414471 -0.40657204 -0.30112028 0.08596354 0.15092501
PROTEIN:8381 0.11627954 -0.007420017 0.4348162 0.034113735 0.024445832 -0.16545987 -0.1600001 -0.19298178 -0.11308878 -0.07535994 0.12670583 -0.13734017 -0.21038538 -0.14912345 -0.301371 -0.016518334 -0.2587521 -0.07565589 -0.019994328 0.45255175 0.20474207 -0.0466477 0.40569076 -0.13293542 -0.028051408 0.23387633 -0.33248022 -0.091759704 -0.0063006813 -0.006699599 -0.019232156 0.3242852 -0.28238416 -0.01730471 0.20711283 -0.081554376 0.14004281 0.10916517 -0.20733845 0.3134952 0.40385425 0.17274407 -0.029063266 -0.04299973 0.07857956 -0.21169285 -0.004634013 -0.03282325 -0.1864761 -0.30003834 -0.03324525 -0.041709352 0.20568322 0.08558162 0.34296262 0.060089875 0.17544979 0.12568001 -0.36025372 0.13310224 -0.35619628 -0.2726124 0.03780416 0.08050651
PROTEIN:11410 -0.023995182 -0.050353333 0.37672463 0.04215252 -0.01353279 -0.16507816 -0.029862272 -0.16854283 -0.13789229 -0.14547531 0.19870572 -0.16308117 -0.30605602 -0.1060553 -0.3211037 0.026175134 -0.24709629 -0.05436598 0.06803457 0.36725745 0.15691452 -0.053118326 0.3024892 -0.1413433 -0.1102965 0.28708428 -0.4123896 -0.14936018 -0.11017424 -0.03403001 -0.050612696 0.3739428 -0.3201481 -0.122509696 0.25745246 0.08445217 0.16920155 0.1511798 -0.123241544 0.24010761 0.37086883 0.16258319 -0.14775686 -0.02037658 0.06511507 -0.12588248 -0.039725132 -0.057146706 -0.13606231 -0.13815631 -0.13720803 -0.08938998 0.18477787 0.043078963 0.31423593 0.019438973 0.111657 0.048466876 -0.27513903 0.056589358 -0.38209733 -0.48041514 0.07871524 0.1290326
PROTEIN:20605 -0.026936732 -0.060704265 0.29718593 0.06401157 -0.05198649 -0.23770562 0.055788003 -0.28580755 -0.1368767 -0.19817647 0.16332172 -0.09025573 -0.25350317 -0.24069074 -0.29126728 -0.041763067 -0.30696404 -0.19311439 0.004285724 0.39965874 0.2864718 -0.039555866 0.26221287 -0.044380583 -0.11006296 0.30220506 -0.3380065 -0.14046738 -0.049526308 -0.04409672 0.05636476 0.3542638 -0.3488425 0.01743607 0.21792191 0.023938362 0.1719421 0.16216858 -0.12323985 0.26126078 0.3509503 0.08755426 -0.022304147 -0.104339115 0.10572242 -0.07915616 -0.03945986 -0.12334944 -0.20688835 -0.18765038 -0.08060745 -0.12990117 0.21519317 0.11974321 0.4227002 0.015119129 0.21901008 0.20537612 -0.2804796 0.07049973 -0.41567576 -0.33125263 0.10901886 0.113558955
PROTEIN:4383 -0.05864269 -0.09938569 0.28558704 0.0977637 0.0031458705 -0.20300004 -0.118705004 -0.19311893 -0.25960928 -0.07269 0.108122945 -0.1267284 -0.2525559 -0.15256377 -0.24244393 -0.00430424 -0.2366711 -0.07983728 -0.020025915 0.48458546 0.29741493 -0.11212665 0.24130934 -0.09583995 -0.16732769 0.21848656 -0.3533384 -0.15199141 0.008192228 -0.09148477 0.021140112 0.49051586 -0.32404882 -0.19899331 0.16583148 0.038718093 0.09221499 0.29759136 -0.14654414 0.22248565 0.29632023 0.030145705 -0.05873212 -0.116127096 -0.06264636 0.07564916 -0.05823751 -0.1450879 -0.3186641 -0.2211264 -0.04549992 -0.15155149 0.21365613 0.055413347 0.3417734 0.060092926 0.17577681 0.062572055 -0.29739633 0.20918022 -0.26929793 -0.2673384 0.08504334 0.036796793
PROTEIN:4876 0.006533919 -0.105776735 0.3494891 0.006602324 -0.016680945 -0.23400947 -0.033961926 -0.10945263 -0.23865171 -0.12636282 0.15905161 -0.16241841 -0.24709761 -0.18490918 -0.33739585 0.01818157 -0.21877131 -0.12728298 0.055073194 0.4358067 0.20845383 -0.1561098 0.35168728 -0.091363974 -0.1257483 0.19660637 -0.41630214 -0.035262097 0.017868109 -0.04081914 -0.014922216 0.44917488 -0.28112614 -0.15048717 0.23286958 -0.06398245 -0.013016298 0.18216154 -0.09817032 0.27737656 0.4393617 0.14540836 -0.023463584 -0.19367132 0.0790438 -0.084179595 -0.04004803 -0.08065873 -0.14395475 -0.22626503 -0.12217171 -0.22214401 0.16440904 0.041526087 0.29948562 -0.008820133 0.14530544 0.15153253 -0.26944995 0.067031726 -0.43275014 -0.3123906 0.13343789 0.079430096
8856 0.09110312 -0.07988222 0.15630317 0.2722438 0.1949534 -0.16526815 0.112650916 -0.14695999 -0.31313968 0.18032339 0.08044827 -0.16051394 -0.07001906 -0.09614788 -0.017367642 0.24496332 -0.031801965 0.07783981 -0.047611002 0.35663018 0.16113178 0.15392923 0.2813595 -0.3621725 -0.07259425 -0.031370744 -0.1288552 -0.017672166 -0.065266326 -0.07304907 0.17006516 0.008093556 -0.046750985 0.0287927 -0.19101156 -0.14133136 0.09699583 -0.012395835 -0.05510383 -0.09992997 -0.080068976 0.006423997 -0.019381003 -0.13102543 0.2478333 -0.11334624 -0.17685415 -0.18361324 0.006589856 0.123807624 0.052780513 0.0682591 0.34846383 -0.15411842 0.089674145 -0.10089119 0.07224687 -0.09657862 -0.078068905 -0.065943256 -0.24204221 -0.15074863 0.035277076 0.0547431
3891 0.21440145 -0.185828 0.118805766 0.13447997 0.16192338 -0.12066319 -0.023891078 0.009601103 -0.35191303 0.049188506 -0.018814165 -0.11318563 -0.022213101 -0.1127458 -0.01646514 0.25112107 -0.03627895 0.13209605 -0.098143965 0.43262377 0.15651225 0.18436705 0.13441314 -0.23201378 -0.07215734 -0.009607953 -0.023223251 -0.14185402 0.043077424 -0.21135399 -0.0038175676 -0.0070136692 0.040357027 -0.02329152 -0.10675199 -0.03989241 0.20989436 -0.07054602 0.09450761 0.047089584 -0.015726304 -0.03851991 0.072064094 -0.06389162 0.18594326 -0.14087614 -0.17454195 -0.24092473 0.122748785 0.13834289 -0.010029584 -0.08814304 0.14054228 0.059734534 0.048867285 -0.13853799 0.09725685 -0.2198511 -0.12671763 -0.03094189 -0.2746916 -0.12370877 0.046355553 0.15217051
PROTEIN:806 0.103096075 -0.096531995 0.16964215 0.12888263 -0.041395705 -0.2695074 0.043481257 -0.026739758 -0.18094525 -0.062264908 0.019429417 -0.05534187 -0.22472736 -0.05207161 0.15911418 0.055267032 -0.0476513 -0.24266118 0.16889134 0.2838005 0.06552613 0.15767108 0.3196004 -0.2124063 -0.20132 0.20817216 0.03132945 -0.06453264 0.20892113 -0.09454672 0.016456822 0.09089369 -0.039846733 -0.14712514 -0.08895821 -0.23187263 -0.01476957 -0.13563178 0.0432064 -0.05922215 -0.10943977 -0.06117885 0.025805486 0.0015868735 0.0007958368 -0.22248138 -0.0066303685 -0.2266289 0.02964377 0.16997266 0.1955372 -0.14520992 0.1536552 0.21375448 0.040121414 -0.040720258 0.29629707 -0.0594914 -0.2504048 0.17267708 0.06889283 -0.105463885 0.16891544 0.14635617
PROTEIN:717 0.1387572 0.07798937 0.25589663 0.09673407 -0.025647525 -0.11415097 0.15688361 -0.13017552 -0.11338265 -0.0853392 0.11628628 -0.2086615 -0.07465768 -0.07352149 0.11841612 0.010658424 -0.009080637 -0.07290421 0.20478578 0.28104058 0.037691392 0.2593908 0.37908202 -0.29532573 -0.19307998 0.14077938 0.058681555 -0.122665495 0.18190834 -0.098890185 0.10477692 0.11879285 0.004230277 -0.17336503 -0.09289214 -0.038366225 0.018283887 -0.158809 -0.092181824 -0.15687245 -0.08201989 -0.1673609 0.021724872 -0.06421723 -0.021994095 -0.1337051 -0.044725407 -0.21972911 0.10213166 0.18661505 0.093613684 -0.164777 0.20423996 0.22597401 0.047408514 0.112380266 0.21632315 -0.22912502 -0.18103237 0.1533992 0.0677707 -0.22553818 0.13030978 0.12659761
3961 -0.02317999 -0.10458204 0.22195114 0.2188767 -0.0012602042 -0.12143854 0.058133207 -0.098510735 -0.3689947 0.1754735 -0.0014098209 -0.14726096 -0.035582367 -0.14611547 0.09504618 0.20022085 -0.01635687 -0.076414265 -0.123623066 0.40868613 0.14072889 0.22444098 0.14644286 -0.30275893 -0.0077391476 -0.037633915 -0.19876835 -0.01159158 0.011432526 -0.13754918 0.072093725 0.085536584 0.044118732 -0.15978579 -0.19945915 0.020048393 0.11114322 -0.07934232 -0.06040852 -0.021116283 0.05807512 0.07261754 -0.0683535 0.038449973 0.20961535 -0.092924625 -0.20713843 -0.27836925 0.04385692 -0.038936544 0.021082344 0.08203977 0.2889056 -0.053473994 0.13833182 -0.16937445 0.062039923 -0.030659653 0.033106644 -0.09371873 -0.2763963 -0.18324678 -0.07155081 0.16229731
8872 0.15274937 -0.07932544 0.1732735 0.16597447 0.15569554 -0.17692973 -0.028374087 -0.10207694 -0.44908947 -0.0028391585 -0.006473821 -0.14544751 -0.0070491345 -0.10048449 -0.037022736 0.39587516 -0.057194408 0.06817483 0.018553354 0.36209014 0.04793893 0.23438935 0.16757603 -0.25536945 0.10409749 0.059872136 -0.10792371 -0.123618044 -0.1169118 -0.0439396 0.15752202 0.079826735 0.03531392 -0.12756467 -0.19132203 -0.13789028 0.0985471 -0.061401915 0.060863722 -0.044162262 0.033016145 0.039543208 -0.14834225 -0.058668047 0.034379106 -0.15315849 -0.13960662 -0.1569116 0.10557215 0.16129337 0.06219786 -0.070789985 0.2858526 0.06747237 0.1373815 -0.11602948 0.066031136 -0.19178206 -0.016679544 -0.009552944 -0.25850776 0.09539689 0.047100205 0.0873486
PROTEIN:20611 0.9185855 -0.34676716 0.8283797 -0.33292618 -0.034105178 -0.14659187 -0.14982258 0.38026312 -0.2255215 0.2063643 0.067578055 -0.44247738 0.17625985 -0.038554 -0.14137377 -0.11105839 -0.46045017 0.09634334 -0.0044961115 0.44246385 0.3622057 0.13188054 -0.17782474 -0.2546469 -0.74151987 0.49696985 -0.050623257 -0.9006072 0.49942887 0.26312327 0.062136136 0.25533748 0.0567734 0.033216648 -0.19197148 0.09402307 0.28392574 0.10192255 -0.12280794 -0.24587259 0.21872827 0.25303623 -0.13668968 0.37277493 0.50739944 -0.25182456 0.14334193 -0.5237344 0.26045138 0.4389947 0.023460511 0.7972576 -0.52688926 -0.2845184 -0.18892676 0.49118155 -0.10528377 0.14080806 0.114286594 0.23626712 0.004275972 -0.18228509 -0.5117283 -0.23929578
3723 0.10218662 -0.07068053 0.15680344 0.32253388 0.20965037 -0.097089 0.14281839 -0.14401455 -0.3601472 0.14022078 0.0886484 -0.13604575 -0.03366764 -0.05149133 0.019481085 0.3512361 0.09101829 0.041990504 -0.030324023 0.29057792 0.22867194 0.14205144 0.21696411 -0.19360463 -0.08208591 -0.025436327 -0.107239775 0.028938565 -0.11424901 0.055830713 0.16091958 0.14080088 0.0795121 -0.010131836 -0.22337198 -0.1673921 0.17202228 -0.18637082 -0.009707823 -0.13879728 0.084196605 -0.019724758 -0.070126 -0.10386081 0.27119684 -0.20089896 -0.0743654 -0.20502985 0.050809182 0.20953028 0.051261827 -0.10040821 0.18412183 -0.04739054 0.21580504 -0.112719126 0.07864878 -0.056050472 -0.12769437 -0.005650588 -0.37400025 -0.105396345 -0.11819852 0.14855598
9915 0.28172633 -0.37202713 0.18947911 0.16074406 0.061789542 -0.31239864 -0.13914928 0.083982 -0.054288033 0.23832986 -0.1425885 -0.19158152 0.0042125885 -0.20013483 -0.02732205 0.34244022 -0.11418476 -0.031812005 -0.09825311 0.23769754 0.10271131 0.104247294 0.14504191 -0.43329686 -0.05296953 0.09311245 -0.05001152 -0.058355186 0.06341301 -0.11177656 0.14513198 0.052078683 0.07896127 0.034268808 -0.01462501 0.031267703 0.22155958 -0.025292402 0.11935985 -0.0520333 -0.016498094 0.11965395 0.016105717 -0.063638486 0.19859847 -0.0558441 -0.13138647 -0.4429081 0.046178784 0.1916645 -0.1506402 -0.09062284 0.054484144 0.19005746 0.007890391 -0.033199538 0.115210876 -0.21199831 -0.20872635 -0.19849914 -0.13296515 -0.13547681 0.0063713924 0.19542272
3324 0.27811876 -0.19510046 0.18290155 0.18531562 0.08665515 -0.23728073 0.009745422 -0.09851422 -0.16512023 0.17598741 0.1852559 -0.22712953 0.1060836 -0.22891168 -0.2324819 0.405384 0.021519452 0.16092904 0.05363985 0.268139 0.118025236 0.37495163 0.16013516 -0.28502947 0.10252472 -0.07643089 -0.0771445 -0.250401 -0.070628226 -0.27245262 0.1763354 -0.061232757 0.14285488 -0.12373095 -0.048877995 -0.008966028 0.19555274 -0.09012343 0.035557084 -0.08402162 -0.05821144 0.043507833 -0.08611979 -0.098261416 0.11282719 -0.15458931 -0.11331505 -0.31774083 -0.01742538 0.06613646 0.0105533805 -0.09724493 0.06000431 0.105120525 -0.06304889 -0.16655973 0.05383283 -0.24949098 -0.08598869 0.05541718 -0.16248812 -0.024227668 0.13757858 0.17673112
3722 -0.13992566 -0.04106587 0.26487628 0.18074875 -0.07764877 -0.16375083 0.18887852 -0.1836973 -0.31372562 -0.012178367 -0.09202996 -0.3046748 -0.09776188 -0.1432424 -0.05923399 0.24795921 0.014367661 -0.034573324 -0.07840915 0.4763683 0.27218074 0.15982632 0.15892032 -0.2531725 0.06732708 0.0412524 -0.09851783 0.15177587 0.030112283 -0.11094674 0.046657525 0.057460334 0.08500592 -0.087398775 -0.12590949 -0.043634858 0.14765058 0.03401852 -0.1773417 -0.03745822 -0.07111431 0.06292726 -0.15067354 -0.1079804 0.12994827 -0.084803894 -0.22734965 -0.26212603 -0.006737476 0.052783705 -0.0119391 -0.0023598655 0.26102084 -0.1524378 0.21870808 0.0048159864 0.12879582 -0.20496453 -0.17383373 -0.16189177 -0.23063251 -0.05665305 -0.06585544 0.10294033
PROTEIN:887 0.4215297 -0.13687265 0.09281825 0.07853903 -0.098171316 -0.2736533 0.14760046 -0.09025147 -0.049945813 -0.066827014 -0.017024394 -0.18360719 -0.058133196 -0.13746431 0.11118691 0.16091639 0.013609175 -0.17808847 0.1251209 0.28486776 0.1598183 0.16881159 0.36558607 -0.17561622 -0.024721283 0.42824125 -0.11064479 -0.06414109 0.34927478 -0.19474705 -0.019954216 0.28256762 0.14358704 -0.18488435 -0.07570025 -0.22027901 0.027375055 0.034368187 -0.030392861 -0.18054253 -0.0137522565 -0.15110116 -0.17632592 -0.046769876 0.00403927 -0.068190284 0.008503876 -0.012065175 0.026733104 0.21944398 0.0680984 -0.021581037 0.09741298 0.1539633 0.027276417 0.08631486 0.17555848 0.015001832 -0.21686834 0.09976378 0.028096745 -0.24562444 0.097811356 0.222965
PROTEIN:4405 0.5887394 0.11062522 0.36902162 0.21058485 -0.1403664 -0.05797174 0.14572634 -0.047483966 -0.32941285 0.1479763 0.16235356 -0.45202124 -0.34149402 0.06778832 0.061348464 0.2874671 -0.02389 -0.027379462 0.1082769 0.14792772 -0.06807504 0.48037225 -0.08761911 -0.115175076 -0.261411 -0.03230159 -0.06424914 0.2763626 -0.18168102 -0.0027832265 -0.15680979 0.100986764 -0.16955198 -0.16655084 -0.28584814 0.023097554 -0.017210515 0.115150556 0.42228213 0.25070685 -0.16262816 0.041657727 0.10579736 -0.086962 -0.059601232 -0.079637654 0.26420128 -0.3547693 -0.3532688 0.1817271 0.25959596 -0.034195084 0.107789844 0.11603725 0.07301272 0.004562652 0.05981188 0.022751618 -0.5139849 0.016043855 -0.057028674 -0.0988941 -0.068491586 0.23431098
PROTEIN:4417 0.56171525 -0.07318028 0.27118886 0.040859915 -0.08981801 -0.03144525 0.12631252 -0.061850127 -0.3620127 0.08885238 0.071289286 -0.4461899 -0.20888884 -0.050144367 0.06145848 0.24498168 -0.027665567 -0.13713187 0.049710233 0.089916706 0.105977714 0.5219414 -0.0072534326 -0.22529139 -0.31006315 0.052527357 0.064203426 0.28634673 -0.19249918 0.021387585 0.024659561 0.048530985 -0.23790771 -0.14050573 -0.24759899 -0.024758304 -0.05233015 0.34088817 0.44873017 0.3266915 -0.10718247 0.11677634 0.07308826 -0.26428905 0.13702528 -0.0010840655 0.28716272 -0.29630807 -0.2880839 0.23491797 0.17971607 -0.027806833 0.20108218 -0.047044367 0.0030627113 -0.14362402 0.05523644 0.12275761 -0.43799582 -0.05583008 0.06789174 -0.33104217 0.031698156 0.119746685
PROTEIN:13326 0.41425055 0.014920241 0.21894889 0.16871162 0.067645185 -0.27920777 0.051008087 -0.033460278 -0.077085316 0.048098072 0.08185064 -0.13919662 -0.07508136 -0.0066968524 0.010095068 0.1178294 0.015355155 -0.37824345 0.1060427 0.28066292 0.08169802 0.17117475 0.18706837 -0.04663233 0.006771651 0.42577133 -0.021508813 -0.013056127 0.30303612 -0.247301 -0.04836263 0.3006528 0.013667256 -0.23430645 -0.11839802 -0.046335198 0.008761155 -0.1271424 -0.061642848 -0.04959749 -0.046080336 -0.08425418 -0.13076265 -0.17698972 0.056293044 -0.27527443 0.0041071353 0.047455188 0.10867967 0.20847473 0.05023848 -0.11090399 0.2797966 0.18486524 -0.06009189 0.01291555 0.14770505 -0.0403511 -0.17035607 0.025914181 0.09418124 -0.31720003 0.08830328 0.35926443
4513 0.22003351 -0.35788125 0.20196281 -0.044847205 0.0812763 -0.1884252 -0.08991257 -0.14126463 -0.21529838 0.18733646 -0.12498384 -0.10137167 -0.042478297 -0.12587231 0.05721292 0.29778925 -0.15824318 -0.0072994996 -0.064295545 0.40638006 0.109389596 0.27664647 0.18920459 -0.16507396 0.12980059 0.042935856 -0.022492763 0.06621363 0.13255742 -0.09490796 0.05118266 0.066804536 0.08787345 -0.0271355 0.023815043 -0.21161738 0.1552361 -0.11028463 0.038472995 0.047319554 -0.050840933 0.081104316 0.0023962932 -0.019363677 0.14658569 -0.09975762 -0.26893958 -0.35470286 0.1424496 0.007783672 -0.028883308 -0.17559446 0.14639448 0.14237455 0.14658457 -0.15452386 -0.017123478 -0.20748898 -0.20603028 -0.04841725 -0.2576216 -0.1291687 -0.0020795912 0.069436274
PROTEIN:9683 0.5979787 0.030161005 0.38782883 0.069460526 -0.06492655 0.0040422548 0.08791537 -0.10728588 -0.26387915 -0.038564347 0.056562643 -0.40817505 -0.3374778 0.044939544 0.21899216 0.15994085 0.06142514 0.07975286 -0.12153463 0.20184693 -0.0243889 0.42182428 0.06602892 -0.24518764 -0.32068938 0.13052234 -0.015828606 0.21435067 -0.19389659 0.07888009 -0.036807578 -0.058846295 -0.24919285 -0.10941357 -0.29056296 -0.15505959 0.032176223 0.21692236 0.41767263 0.37876263 -0.15378411 0.15895583 0.18089184 -0.19136858 -0.023628673 -0.063797235 0.34882414 -0.38625708 -0.19941306 0.21623157 0.12880206 -0.06891744 0.05309605 0.05137509 0.28744358 -0.18666327 0.12342334 0.08177629 -0.40345162 -0.15889472 0.07125742 -0.2847642 -0.045184616 0.15418063
PROTEIN:12505 0.2785064 0.078213535 0.07817588 0.16155091 -0.04438402 -0.14814515 0.16795452 -0.13860907 -0.05949218 -0.10803826 0.11656893 -0.23031335 0.02221887 -0.1521219 -0.08726378 0.24601078 -0.059734315 -0.3150656 0.21573792 0.25838462 0.1595904 0.19501245 0.21263753 -0.26469278 -0.007796574 0.291121 -0.010609318 -0.20802689 0.3233338 -0.2487568 -0.116990395 0.31489244 0.045007095 -0.23713344 -0.08405083 -0.24595587 0.08628724 -0.0493215 -0.0526325 0.0031159483 -0.08708257 -0.15155292 -0.18059182 -0.031242289 -0.059199266 -0.07362881 0.056071945 -0.004361074 0.15332584 0.25755933 0.13119723 0.04251478 0.1472201 0.26422948 -0.014619239 0.09795293 0.16284637 0.0079842135 -0.1643703 -0.1142121 0.05874793 -0.36247692 0.097770214 0.36238754
PROTEIN:1163 0.389524 0.022376291 0.35316032 0.12598985 -0.009101833 0.068137735 0.07927519 -0.0947804 -0.2567212 0.1597416 0.019388655 -0.36680332 -0.32837027 -0.10263366 0.025641207 0.2574203 -0.06993294 0.00063340686 -0.024257038 0.18475643 0.059677817 0.5496117 0.08423038 -0.057849947 -0.27563915 -0.09980147 0.027388303 0.19308583 -0.14921081 0.15113573 -0.0766844 0.019207165 -0.21797779 -0.30449304 -0.23277676 0.045983147 0.060228217 0.27050242 0.32360277 0.27638367 -0.12024005 0.27507874 0.16425632 -0.3077137 -0.06446338 -0.09845527 0.24039824 -0.23710117 -0.32210252 0.24541362 0.17047468 -0.075150624 0.19809519 -0.00065681466 -0.013550774 -0.28450146 0.07280366 0.14400995 -0.46669462 0.031609487 0.049055785 -0.3830912 0.04459535 0.35980743
PROTEIN:4418 0.4297091 0.09363926 0.2163715 0.15672678 -0.030890208 -0.1073069 0.08661535 0.017780725 -0.398405 0.13912635 0.03220963 -0.49079162 -0.41169795 -0.09069936 0.022164691 0.21554868 -0.0200259 -0.0014813335 0.06203437 0.21692924 -0.03488448 0.43835974 -0.08469444 -0.108421996 -0.2078555 0.05550566 0.005755414 0.2788221 -0.15541878 0.021307925 -0.043090306 0.17664587 -0.31917623 -0.1376462 -0.32360846 0.0110697225 0.06069815 0.19036038 0.39990956 0.3072788 0.02141276 0.11909504 0.114616275 -0.20435503 0.20890789 -0.13955252 0.24836664 -0.30053008 -0.25495926 0.23764203 0.098972656 -0.09493857 0.19861329 -6.396442e-05 -0.078906484 -0.119774185 -0.043072466 0.13486771 -0.3456007 -0.14854218 0.2028994 -0.3944373 0.15665065 0.053459536
PROTEIN:1480 0.34596348 -0.06491515 0.10416753 0.17144215 -0.029942837 -0.32167566 0.02183132 -0.015855897 -0.099956505 -0.0026547825 0.03831367 -0.035229616 -0.096244775 -0.19602959 0.18587211 0.018490523 -0.057331853 -0.20586288 0.11165502 0.26270887 0.077015154 0.25283673 0.41405505 -0.23422791 -0.0865497 0.31096295 -0.0692923 0.005724032 0.3246142 -0.26828218 -0.053399716 0.2703375 0.09055417 -0.13060497 -0.076975875 -0.23623757 0.11086311 -0.10434144 -0.14238556 -0.081973575 -0.021458717 -0.23469909 -0.21252865 -0.05334578 0.012856493 -0.15951845 0.08866875 -0.05005017 0.060651403 0.29699847 0.11725918 -0.030732859 0.19636394 0.1419137 -0.06471386 0.083656564 0.055071298 0.1141301 -0.22967416 0.033306662 0.08086749 -0.31527165 0.18222092 0.24566911
PROTEIN:18382 0.32191142 0.026690317 0.10613298 0.031836625 -0.02434313 -0.22399606 0.10625174 -0.09167951 -0.17046548 -0.009769157 0.050545517 -0.10458038 -0.09135511 -0.05799979 0.03248198 0.075526096 0.1508339 -0.25710127 0.13588856 0.3167581 0.18964739 0.31824854 0.35958266 -0.20062257 -0.1603174 0.27629623 0.020000802 -0.0991453 0.323795 -0.20287432 0.013019715 0.26800513 0.03220777 -0.13786305 -0.13037659 0.022958236 -0.074258894 -0.07750469 -0.20147619 -0.040459737 -0.048966598 -0.1462748 -0.11698947 -0.14053212 0.06451381 -0.117674075 0.00537912 0.08292244 0.15688483 0.2855867 -0.020544518 -0.08290004 0.15593037 0.26260173 0.045969587 -0.031739287 0.2115925 -0.13649271 -0.1749801 -0.047104437 0.13914959 -0.33659452 0.118178435 0.2769576
PROTEIN:19635 0.17514977 -0.13980353 0.25699514 0.11990023 0.013566526 -0.18924819 0.06973633 -0.123363204 -0.095292404 0.07639998 0.22257897 -0.10330877 -0.030643582 -0.009798258 0.13175856 0.23240459 0.015277304 -0.33548263 0.13460225 0.31924418 0.10358402 0.15231131 0.31790176 -0.0356919 -0.06690658 0.34780294 -0.06988839 0.0042076763 0.27628928 -0.16882034 -0.117626816 0.3412226 0.06529094 -0.21118769 -0.046525244 -0.2568508 0.03287877 -0.03532812 -0.05199293 -0.08827733 -0.005869733 -0.10372028 -0.18855636 -0.13220067 0.096216515 -0.1873942 0.033227954 -0.058451235 0.06334536 0.21937312 0.107209206 -0.15659429 0.097908266 0.17465568 0.0453728 -0.035958562 0.17778553 -0.078425705 -0.11952516 -0.09076737 0.20019692 -0.27572066 0.19680381 0.37046567
PROTEIN:1621 0.4886993 0.05773527 0.34131122 -0.023138648 0.09553321 -0.01927488 0.16459692 -0.166403 -0.27870256 -0.039050028 0.14141148 -0.56833375 -0.32884115 -0.03585752 0.05572977 0.2085421 -0.0055876006 0.029170725 -0.038305655 0.13020587 0.0032274001 0.49195457 0.10865006 -0.32083717 -0.21907923 0.031692162 0.08428998 0.2573064 -0.120931424 0.07335554 0.003729094 0.048905335 -0.191033 -0.28049722 -0.14578651 0.19003718 0.043910295 0.2066461 0.35372448 0.31921723 -0.22607666 0.19547425 0.24643293 -0.1594778 0.16806331 0.044455584 0.35073096 -0.32853708 -0.28657302 0.1869976 0.05371679 -0.02347766 0.28016526 0.0054999823 0.0935442 -0.058843005 -0.1700622 0.18186755 -0.40254048 -0.030074066 0.096338786 -0.2878537 0.16173522 0.22353669
PROTEIN:21279 0.2574294 0.068803675 0.15265721 0.10522996 -0.10730988 -0.31007653 0.015343203 -0.1499976 -0.17109439 -0.18434997 -0.023447068 -0.065764874 -0.046393633 -0.10343343 0.09019347 0.14571866 -0.10950777 -0.23144604 0.0703899 0.26880133 0.09709308 0.19568577 0.35450372 -0.34884748 -0.016537366 0.26950166 -0.24340107 -0.23430583 0.3504516 -0.20012097 -0.15397258 0.24022959 0.09808579 -0.32367808 -0.04063249 -0.24720655 0.085233405 -0.08581375 -0.16566193 0.046024982 -0.064763635 -0.09181384 -0.07688105 0.059761774 -0.09351516 -0.23178476 0.04578695 0.033797782 0.17483778 0.37790063 -0.07374822 -0.018592067 0.021060778 0.22727346 0.014174749 0.1198677 0.10955352 -0.082217515 -0.2132765 -0.042262293 0.12826946 -0.17617998 0.06649517 0.29843125
PROTEIN:939 0.35616228 -0.043756206 0.2020218 0.14906715 0.030509781 -0.26430047 0.11005419 -0.23386565 -0.022971524 0.024428654 0.10983687 -0.046496775 -0.11550839 -0.2785026 0.15603188 0.14452581 0.07687939 -0.14904544 0.1481107 0.37087503 0.058476634 0.21995963 0.29417077 -0.08156652 -0.055781294 0.25895503 0.012151203 -0.11556292 0.24917687 -0.12242813 -0.043804754 0.26228172 0.13154423 -0.1488025 -0.10401941 -0.2694947 0.042224437 -0.101611964 -0.19927074 -0.025880987 -0.06156708 -0.15947585 -0.16402557 -0.06899981 -0.00023713036 -0.11319059 0.010970211 -0.09009513 -0.020451078 0.23217414 -0.0104063675 -0.015623189 0.11756455 0.21668383 -0.047904596 0.026415285 0.21945 -0.08233734 -0.3216688 0.13925482 0.21718933 -0.19207633 0.13249917 0.33256468
PROTEIN:1604 0.33410105 0.032570206 0.17103474 0.1680653 -0.17670707 -0.24390076 0.0583182 -0.0814191 -0.09810594 -0.10235162 0.1808471 -0.16637023 -0.030799966 -0.029004335 0.011388917 0.25463194 -0.07051329 -0.13582489 0.053191397 0.2724118 -0.05166719 0.17986807 0.4346071 -0.13527161 -0.13911083 0.24719451 0.09250058 -0.11420187 0.31381828 -0.24825183 -0.124223925 0.40743643 0.053433444 -0.22046222 0.030196097 -0.17229703 0.06497024 -0.093803905 -0.19965905 -0.11668341 -0.013432589 0.076165505 -0.1469258 0.03843094 -0.09304173 -0.032243606 0.13347001 -0.14740385 0.0040016845 0.2972464 0.10598664 -0.05339885 0.14811346 0.16671927 -0.033734437 -0.005963535 0.28457877 -0.04165148 -0.20471184 0.061208427 0.07772176 -0.20590077 0.115532935 0.32078078
PROTEIN:11377 0.42935795 -0.12723516 0.14501503 0.10556244 0.0001502331 -0.17895414 0.18968445 -0.12747934 -0.052056532 -0.009580667 0.09457519 -0.059493847 -0.23941115 -0.1427105 0.15764467 0.09358876 0.10969731 -0.09171937 0.0619909 0.19159278 0.109832264 0.21973522 0.37080786 -0.22066395 -0.24584514 0.2911974 -0.13741568 -0.19125856 0.15453403 -0.18121128 -0.16338398 0.12023487 0.11840188 -0.20204477 -0.05191213 -0.21312107 -0.019485181 -0.06588485 -0.007976535 -0.10502504 0.1328833 -0.2058329 -0.21829914 -0.14467914 0.0017068998 -0.17872603 -0.03444466 -0.09104537 0.1633041 0.26581222 -0.015053135 -0.12890726 0.19565313 0.1737349 -0.11123488 0.0073945685 0.26353648 -0.050691612 -0.20436072 0.005008166 0.105852425 -0.33967283 -0.04295123 0.32634497
PROTEIN:14822 0.30135095 -0.044370625 0.18557733 0.1563551 -0.044328798 -0.20533907 0.11587251 0.022423098 -0.084653996 -0.029681282 -0.03969827 -0.12766378 -0.044864986 -0.06679216 0.05529877 0.22961363 -0.0138769 -0.21032967 0.14558576 0.31639388 0.04487855 0.1959886 0.3247341 -0.15116584 -0.1112945 0.3206022 0.017377172 -0.02234594 0.36579335 -0.13157879 -0.068849556 0.39726073 0.21467598 -0.25787696 0.012737374 -0.14099258 0.07799733 -0.044681672 -0.09314696 0.01107317 -0.083465286 -0.12267723 -0.2358467 -0.03529646 0.16352469 -0.08209098 -0.096414566 0.06317178 0.12781459 0.16641839 0.1615986 -0.0014900308 0.3338956 0.24664535 0.042977132 -0.056199558 0.07530898 0.015547325 -0.15959597 0.09067372 0.13542055 -0.18828993 0.12115381 0.27548113
PROTEIN:987 0.36554012 0.032588374 0.10695987 0.14415103 -0.08244451 -0.30594698 0.17701004 -0.07728041 -0.03457113 -0.060937554 0.05530633 -0.06929609 -0.1967222 -0.17408715 0.18327254 0.18089442 0.09974245 -0.059859622 0.2229302 0.42470914 0.021424739 0.17576759 0.21477313 -0.147618 -0.117340505 0.29920343 -0.0738915 -0.13547346 0.34835312 -0.10549798 -0.18957672 0.18179075 0.091364555 -0.11210147 -0.010815898 -0.24841206 0.1414315 0.0018487681 -0.14061412 -0.07210759 -0.031564668 -0.04416969 -0.117766276 -0.019205669 0.061237924 -0.046864823 -0.09018259 -0.050515894 0.07245896 0.22610739 0.051398546 -0.083472565 0.16081525 0.29017797 -0.011444234 0.07434439 0.32883748 -0.08745855 -0.133252 -0.021055216 0.13007145 -0.28840947 0.18973649 0.2870314
PROTEIN:19637 0.46882382 -0.08905183 0.058808338 0.08885636 0.025209794 -0.28117016 -0.03214408 -0.08304562 -0.003959309 0.028486978 0.1015921 -0.22477496 0.044613913 -0.060579646 0.069263734 0.28833213 0.099134974 -0.0985531 0.12483207 0.33449504 -0.040668517 0.09926569 0.24601197 -0.26301837 -0.019043643 0.52500343 -0.02626106 -0.12756824 0.30285686 -0.15446039 -0.06187981 0.16948657 0.009710179 -0.2071339 -0.110676 -0.33753484 0.0020864021 0.004201421 -0.13897932 0.0142598925 0.039165247 -0.020134397 -0.16551352 -0.17058204 0.10776043 -0.21008366 0.12522219 -0.1006118 0.051789477 0.21480538 0.11694777 -0.050513554 0.12156691 0.19844396 -0.08618893 0.036888633 0.32789725 -0.038266756 0.020884564 -0.046113484 0.17675157 -0.2631808 0.12365772 0.24056363
PROTEIN:17513 0.23860796 -0.02351373 0.18720008 0.14894089 -0.20020546 -0.10064131 0.13478878 -0.09775852 -0.03633825 -0.028610995 0.14015454 -0.12476978 0.013393162 -0.2117415 0.09806204 0.21824995 0.054260552 -0.07107358 0.05236107 0.17017032 0.14767127 0.28025442 0.3355014 -0.28265637 -0.09187083 0.23322931 -0.010320243 -0.025528142 0.5027755 -0.19809657 -0.1807249 0.27431336 0.04128324 -0.22041208 -0.01837572 -0.16913003 0.050658945 -0.047755916 -0.058603927 -0.07582044 0.031776097 0.0427651 -0.1869649 0.017441763 -0.023037631 -0.10189156 -0.07341959 0.0002652415 0.04518607 0.3287811 0.063867345 -0.04860744 0.19664706 0.22927961 0.10136576 -0.060404666 0.35840133 -0.029249111 -0.21151562 0.07168342 0.08177284 -0.19553474 0.062511 0.2818239
PROTEIN:1489 0.3831354 -0.05149806 0.17431097 0.13728456 -0.031780623 -0.057834424 0.12561011 -0.15505753 -0.030569816 -0.071497135 0.100998394 -0.01810025 -0.14907454 -0.0884354 0.20198312 0.10915211 0.0810829 -0.115737244 0.031402912 0.36278367 0.13486578 0.21069914 0.32307124 -0.024663303 -0.18715434 0.30946568 -0.055870596 -0.14691436 0.42878613 -0.27146852 -0.13622926 0.22019641 0.16649264 -0.16211645 0.071769394 -0.15975149 0.042797048 -0.14564434 0.0021653608 0.09666237 -0.01700794 -0.0137160905 -0.11654631 -0.019592302 0.105361015 -0.3497613 0.11141431 -0.093742944 0.056608323 0.2871628 -0.03231272 0.0465716 0.21739016 0.15216425 0.044482954 -0.028236026 0.17394465 0.02817177 -0.13083479 0.06929159 0.026288366 -0.26317844 0.10616662 0.3588124
3895 0.21351156 -0.32190368 0.22007754 0.087220326 0.022798376 0.010024916 -0.122063085 -0.09754588 -0.36003593 0.07397714 -0.014832321 -0.14425384 -0.11404263 -0.2293659 0.009649233 0.36950856 -0.17414586 -0.082244016 0.035040565 0.46978316 -0.06863207 0.24013242 0.075878054 -0.2980171 0.1208142 -0.021360764 -0.038178455 -0.05699543 0.0020011785 0.03690972 0.15682302 0.150382 -0.03853364 0.034887332 -0.13244486 -0.061182283 0.23134576 -0.04953999 0.04189472 -0.16309384 -0.18953323 -0.10241053 -0.0068686153 -0.060292203 0.05980016 -0.15683836 -0.11086641 -0.14546926 0.13556294 0.07497276 -0.06319143 -0.010482905 0.0029488679 0.27207196 0.07926067 -0.046882257 0.15251239 -0.07939031 -0.03801553 -0.024430986 -0.36298174 0.058824588 -0.068461426 0.17008744
PROTEIN:1479 0.26947278 -0.010415504 0.021003067 -0.02676331 -0.03201271 -0.41547143 0.106882274 -0.052318428 -0.15270667 0.046027917 -0.083853394 -0.14964496 -0.09229012 -0.19565427 0.2629259 0.040379036 0.11386161 -0.24977663 0.18041542 0.279632 0.15398104 0.23873281 0.23452775 -0.111077294 -0.093431 0.30830365 -0.0052358652 -0.12508288 0.15426593 -0.20182258 -0.077364564 0.36986613 0.0047912933 -0.0852563 -0.028340153 -0.19851047 0.008169758 -0.08575088 -0.2476648 0.026269117 0.057036344 -0.16012408 -0.044242963 -0.005401716 0.034858022 -0.2109861 0.042932797 -0.21141566 0.033168666 0.15766117 0.06820715 -0.016205467 0.20100866 0.31325212 0.012569892 0.0925913 0.2161701 -0.13183632 -0.051449638 0.089751884 0.036945924 -0.39551368 0.19923128 0.35804555
PROTEIN:1639 0.31392458 0.024348335 0.23705733 0.054950815 -0.055951156 -0.21911019 0.046356194 -0.12005597 -0.036512833 0.03567183 0.010873315 -0.019811044 -0.14716807 -0.105310075 0.108992316 0.1191629 0.00073949783 -0.18481933 0.048420124 0.32058048 0.07593484 0.19578424 0.32004565 -0.21292344 -0.14194049 0.21059859 -0.022819798 0.02330471 0.28666672 -0.19683559 -0.07886425 0.35776085 0.10059685 -0.16312036 -0.11722479 -0.25625697 0.059435654 -0.013578301 -0.08414046 -0.11799917 -0.013178653 -0.21252151 -0.1499757 -0.12856734 0.04935087 -0.17363518 -0.043851748 -0.10405967 -0.014788891 0.24834763 -0.0041173804 0.12036485 0.1889459 0.2800447 -0.063455015 0.08242187 0.10854553 -0.09374547 -0.094144665 0.100419484 0.1125713 -0.35703608 0.09545765 0.3442626
PROTEIN:8194 0.40063274 0.061328765 0.35048836 0.12861899 0.049449325 -0.16121356 0.12572315 -0.120132394 -0.32747474 0.17061079 0.06367743 -0.4913715 -0.38495824 -0.06972827 0.06475374 0.12609771 -0.017334508 -0.037332755 -0.09736704 0.045386218 -0.06150273 0.44238847 0.1499563 -0.16321672 -0.20479605 0.005786484 0.025188787 0.21501699 -0.14787377 0.13650304 -0.054524444 0.1585172 -0.21697599 -0.2805764 -0.14483818 0.046407238 0.10172231 0.19147298 0.50507516 0.17264184 -0.21150087 0.13043816 0.24765746 -0.075273596 0.011052669 -0.12981606 0.36173084 -0.3303813 -0.21935572 0.11648667 0.11648909 0.06049801 0.23697919 0.010900893 -0.065986164 -0.10663155 0.034932468 -0.016079437 -0.57807827 -0.061961938 0.089256585 -0.24819265 0.054256443 0.30777773
PROTEIN:1096 0.33836544 -0.043188397 0.044582877 0.09627625 -0.02702868 -0.3088697 0.16728617 0.11462448 -0.09340418 -0.08692679 0.13283162 -0.05131562 -0.01384085 -0.20566341 0.18261194 0.09699601 -0.053598233 -0.08324747 -0.036049042 0.29409397 0.17820053 0.20180973 0.31088135 -0.13333292 -0.023412611 0.34886402 -0.031334795 -0.07952977 0.26978257 -0.10670846 -0.060544953 0.26562813 0.14143388 -0.28907308 -0.026137117 -0.17883652 0.055088475 0.01884957 -0.07088629 -0.024040371 -0.050116394 -0.13876535 -0.15600698 -0.09489761 0.077199414 -0.1297686 0.057312276 -0.1138394 0.1694651 0.22084355 0.08632145 -0.07362602 0.3005483 0.229576 0.11124527 -0.027624149 0.17636824 -0.07608942 -0.33137497 0.15818818 0.18492693 -0.24071108 0.07009882 0.17757833
PROTEIN:989 0.39632216 0.15282781 0.27849394 0.04136633 0.02080929 -0.2769352 0.10603437 -0.104429245 -0.07152743 -0.02064713 0.09043711 -0.11260964 -0.04009399 -0.219509 0.1287874 0.1615151 -0.07144605 -0.26585478 0.10265396 0.31775737 0.15557042 0.29388806 0.3051085 -0.11496543 -0.034514457 0.23355891 0.0002091103 -0.07013197 0.37598273 -0.10702844 -0.09974411 0.17600733 -0.007132697 -0.16942632 -0.0070172977 -0.19603218 0.12149929 -0.01419035 -0.15632689 -0.08263848 -0.102192104 -0.1456978 -0.060565904 -0.040963247 0.043542605 -0.2130064 -0.07128865 -0.007891732 0.09681803 0.20810801 0.11222651 -0.09617182 0.16753523 0.21171989 0.052752905 0.08882756 0.21498892 -0.10739386 -0.10478107 0.084763564 0.14190641 -0.18522972 0.25610226 0.3269604
PROTEIN:6410 0.33786476 -0.026595015 0.08703054 0.07336122 -0.057131507 -0.16180158 0.07795375 -0.13298625 -0.11885185 0.08274717 0.07231822 -0.17582731 -0.06436328 -0.17459644 0.1103341 0.13693225 0.06838258 -0.24685661 0.07888399 0.21113895 0.18964353 0.1469919 0.30642337 -0.23876765 0.034896575 0.3470524 -0.08390585 -0.18392386 0.37654382 -0.13874562 -0.024671303 0.18827875 0.05326203 -0.1599977 -0.10315134 -0.2949507 0.038590655 -0.06840975 -0.12497971 -0.15234903 -0.043117024 -0.063127615 -0.11936162 -0.0027755369 0.07809248 -0.07885011 0.10882434 -0.041434743 0.17604099 0.14383616 0.047741134 -0.10978636 0.15122062 0.27146733 0.01865413 -0.043558553 0.29610723 0.03406583 -0.168919 0.008381306 0.05831121 -0.28933695 0.14061116 0.3792739
PROTEIN:959 0.36424646 -0.03700718 0.053346466 0.08620722 -0.02131699 -0.20828885 0.01898291 -0.05677959 -0.18273295 -0.15294102 0.18693726 -0.036368504 -0.046800084 -0.019928884 0.10341282 0.24237719 -0.031985555 -0.12929398 0.19199806 0.3485845 0.09149455 0.07762383 0.45867226 -0.16026755 -0.058986705 0.23374125 0.03174399 -0.08021099 0.20254265 -0.21981607 -0.058670927 0.2518472 0.10761365 -0.1540202 0.027551152 -0.18281682 -0.037603486 -0.07900873 -0.09702986 0.004074295 -0.058914363 0.010118034 -0.07045977 0.008321083 -0.051883716 -0.09030431 -0.054800164 -0.08228515 0.1855539 0.2305146 0.11008783 -0.041968934 0.26093912 0.2378145 -0.037954036 -0.087888844 0.14362854 -0.043738887 -0.20579544 -0.02891583 0.18340035 -0.35425475 0.24151912 0.39274547
PROTEIN:1530 0.21051633 0.07816435 0.13985527 0.058487527 -0.09989079 -0.18294266 0.22045255 -0.026621105 -0.19783351 -0.08370416 0.17491616 -0.16916206 -0.07856687 -0.20740059 0.16923957 0.16914052 0.017925102 -0.21285142 0.022130677 0.40413436 0.030208122 0.14705375 0.19468573 -0.108276024 -0.010659393 0.30560967 -0.022551239 -0.022809332 0.40067077 -0.14913748 -0.07404189 0.267777 0.045536347 -0.23386814 -0.10558866 -0.25364703 0.12352795 -0.054124307 -0.1618025 0.11083539 -0.088792436 -0.14760403 -0.2232931 -0.19530153 -0.0448057 0.012053983 0.028903319 -0.078417644 0.096269175 0.2596604 0.006720924 0.014367133 0.18578826 0.26549715 -0.053690054 -0.025189945 0.2820327 0.04854959 -0.101767644 0.028294582 0.012687361 -0.32343045 0.17844893 0.32141793
3897 0.21750064 -0.050307315 0.22280803 0.21437287 -0.11914701 -0.041966822 -0.111934654 0.004931358 -0.36979273 0.10004916 -0.14720748 -0.17340486 0.15366107 -0.075948834 -0.16554286 0.24830772 0.008805349 0.18896669 -0.034309078 0.51531476 0.03577777 0.16270304 0.06884267 -0.28951174 0.1641621 -0.02989058 -0.16579708 -0.17542118 -0.06246569 -0.33271882 0.0502441 0.10169474 0.2953592 -0.25987476 -0.02618372 -0.103296995 0.2592792 -0.08931652 0.13673392 -0.08779405 -0.15458529 0.119299375 0.055810556 0.0477929 0.20965818 -0.08248402 0.00647966 -0.33562335 0.027723826 -0.09332424 -0.06925666 -0.007598592 0.13603361 0.3348361 -0.072985284 -0.19871263 0.042184964 -0.29234484 -0.012558962 0.062018864 -0.06179426 -0.08563652 0.025455872 0.2597941
3615 0.078707345 -0.2161724 0.17025773 0.20187122 -0.032709982 -0.2629814 -0.014981402 -0.149378 -0.2542441 0.035184886 0.05492659 -0.24033886 -0.18829153 -0.04141726 0.1699826 0.11569928 -0.04531848 -0.0024964188 -0.22568291 0.46888378 0.05075388 0.21807778 0.15720542 -0.29495627 0.0037898 -0.061748587 -0.15941294 0.11601502 0.013184356 0.018994007 0.047403492 0.10193344 0.080702364 -0.026478263 -0.2571873 0.001170123 0.088115916 0.03282973 -0.06612434 0.014981105 0.07584478 0.08679408 -0.058131095 0.05920981 0.19481984 -0.092985414 -0.3179935 -0.26259825 0.06265662 -0.029858455 0.045364656 0.05283724 0.2514289 0.013171306 0.2179139 0.1063877 0.082493 -0.104773626 0.041314255 -0.00948981 -0.3188895 -0.25554729 0.046999637 0.13287063
PROTEIN:6352 -0.2275024 0.0075165746 0.39657918 0.38746613 0.033355072 -0.044993635 -0.136721 0.045721598 -0.059695605 -0.15346444 -0.17731772 -0.17611474 -0.2933354 0.1898408 0.1670712 0.27446193 0.12640755 0.14940332 0.14748292 0.2638806 0.03977135 0.24030133 0.15036538 -0.39396518 -0.21743828 0.2524332 -0.0827697 -0.29018393 -0.046456452 0.13220972 8.1643644e-05 0.08621938 -0.08605726 -0.16284288 0.086240515 -0.04459122 0.039930478 -0.12856442 0.0012922889 0.069053814 -0.11588512 -0.16829138 0.030584099 0.045023177 0.20152506 -0.12592296 0.049273152 -0.17778394 0.031435028 0.0050221644 0.16649786 -0.21932262 0.04305502 0.25171614 -0.011314946 -0.20120324 0.123243555 -0.18599391 -0.06730374 0.27179027 -0.15209092 -0.3651657 -0.14452335 0.1683546
PROTEIN:6119 -0.0650791 0.03992489 0.25401887 0.13427493 -0.012447451 -0.22806934 -0.11473807 0.19118361 -0.24739592 -0.16702753 -0.26014653 -0.20495522 -0.2503319 0.087018795 0.23374501 0.20953546 0.007566867 0.18764205 0.088942535 0.31889853 0.0017962671 0.15434 0.11020265 -0.3205534 -0.057992294 0.33059794 -0.0024631252 -0.34829125 0.048675004 -0.11386668 0.3152271 0.013071301 -0.29281312 -0.09688564 0.012199154 -0.21625902 0.042823352 -0.020942677 0.058122594 -0.046301942 -0.23164327 -0.24334835 0.10684019 -0.011629234 0.2754148 -0.058749907 0.106859654 -0.18350355 -0.17851615 -0.075295135 0.3804705 -0.31195804 0.06762534 0.13471468 -0.09737271 -0.20835991 0.19990985 -0.090687774 -0.013692511 0.28655505 -0.26262307 -0.17938781 -0.033892356 0.08884321
9390 0.046845302 -0.20341739 -0.013777531 0.22793089 0.0661165 -0.21850975 -0.1108039 -0.0365382 -0.38312352 0.036288343 -0.11320861 -0.26472688 -0.06267406 -0.13562733 -0.0039581433 0.38429865 0.024460997 -0.00022402078 -0.06819546 0.43116748 0.066761784 0.21910572 0.08446426 -0.2444996 -0.021280283 -0.0863794 -0.025519904 -0.04262902 -0.0142866075 -0.15929458 -0.0029801915 0.07763099 0.050492156 -0.13164814 -0.23214433 0.002341132 0.06969466 -0.016852733 3.439909e-05 -0.15779214 -0.019298565 0.0052187624 -0.14186035 0.003706398 0.32493305 -0.113455966 0.013521913 -0.19004923 -0.14523146 -0.04448959 -0.021340454 0.049741898 0.10035372 0.03622647 0.11607811 -0.27327588 0.17658204 -0.13301258 -0.10925095 0.017673682 -0.3177179 -0.14615865 0.038171012 0.17129382
3491 0.264804 -0.14752813 -0.018723132 0.1368628 -0.047970805 -0.14857407 0.01537137 -0.0111888815 -0.3324289 -0.022907551 0.03113953 -0.16007337 -0.14998882 -0.16693205 -0.08229321 0.320288 0.0018208392 0.051783144 -0.039177038 0.34514925 0.22901273 0.084901266 0.07658775 -0.38063833 0.09503269 0.02536572 -0.063352585 -0.12291681 -0.025983574 0.022059439 0.121891506 -0.0008126604 0.056435753 -0.12350367 -0.093605086 0.07649727 0.06155883 0.017975086 0.012421544 -0.15545873 -0.17001386 0.23581533 0.06803574 -0.029076558 0.04394544 -0.11074968 -0.2534637 -0.29607666 0.061233986 0.20224592 -0.019355115 0.18510684 0.21084797 0.07627069 0.10681436 -0.013204573 0.08780794 -0.28786954 -0.22377607 0.03149649 -0.31778517 -0.12857616 0.15039483 0.16031301
PROTEIN:6154 -0.11005285 -0.15660703 0.20920163 0.07611656 -0.12011809 -0.016350973 -0.14234705 -0.20472115 -0.5233718 -0.1105321 -0.051465794 -0.22368288 -0.2431742 0.0015251719 0.04738715 0.11042825 0.012771273 -0.009331058 0.23272172 0.17961727 0.03163395 0.100890204 0.18603763 -0.26552394 0.04539978 0.16394271 -0.03277528 -0.002944422 0.1743129 0.002429904 0.2518784 0.074684285 -0.07753513 -0.04004413 -0.11850059 0.053750146 0.021861216 -0.105920464 0.15676518 -0.21597788 -0.03475964 -0.07731091 0.095180504 -0.17297077 0.22534516 -0.19682986 0.019416982 -0.21850519 0.013290083 0.069281064 0.27926934 -0.120884664 0.12315812 0.34080657 -0.07985866 -0.019462971 0.06321508 0.029943388 -0.26687285 0.19140151 -0.031491894 -0.27032173 -0.081081614 0.009182397
PROTEIN:3377 -0.111950696 -0.11563863 0.23862915 0.1659991 -0.08006025 -0.1097541 -0.10252325 -0.0861027 -0.44781256 -0.22324489 0.033004228 -0.17708129 -0.20673636 -0.16564058 0.12285171 0.24485219 -0.08004457 0.110243626 0.11240563 0.12031952 0.13520786 0.17166415 0.14340305 -0.30968413 0.011888242 0.25913736 0.012889455 -0.14423954 0.12396827 0.04129469 0.20183437 -0.026558194 -0.16458169 -0.14602193 -0.14766583 0.05602631 -0.110337816 0.034332916 0.11272744 -0.14164697 -0.04673651 -0.0529916 0.104867615 -0.10933914 0.23610169 -0.19571024 0.10435387 -0.16849002 0.0042591905 0.08181661 0.1685951 -0.21309997 0.09721141 0.057661723 -0.061010733 0.15227643 0.11600791 -0.0019143525 -0.3091331 0.23812589 -0.058850493 -0.23605372 0.1252172 0.013041025
PROTEIN:19005 -0.1585202 -0.12443844 0.39967573 0.122155935 -0.057192367 -0.029182415 -0.0521073 -0.0043417565 -0.28736144 -0.15703891 -0.06497269 -0.22682978 -0.17454807 -0.03430411 0.12947151 0.27345017 -0.08327679 0.10008543 0.15719889 0.27122062 0.07894755 0.11016017 0.057614516 -0.254479 -0.045691587 0.2060845 -0.05316927 -0.10700107 0.20212443 0.067534156 0.17370234 -0.022451406 -0.020897646 -0.08039778 -0.16342308 0.051502824 -0.06425559 -0.07562091 -0.03848131 0.06609776 -0.16922778 0.15686642 0.0324468 -0.081200086 0.18485224 -0.22412482 0.14648503 -0.1468826 0.080710314 0.1577932 0.3184912 -0.22071522 0.2267316 0.23634048 0.017925926 -0.032677416 0.12580545 0.060926348 -0.27442113 0.40258 -0.060471114 -0.073626414 -0.060761508 0.008698855
PROTEIN:10036 -0.046501163 -0.060087413 0.23492311 0.09090746 -0.13826828 -0.04747596 -0.21539755 -0.04169589 -0.52685356 -0.08407862 0.07473661 -0.124300174 -0.2010327 -0.10171239 0.20722175 0.06652477 0.0005516415 0.055231076 0.26234555 0.25436035 0.040746216 0.045395754 0.13781981 -0.33067834 -0.030531678 0.16023575 0.074144706 -0.18289323 0.1510291 -0.0059401304 0.1671908 -0.084414944 0.0050888765 -0.08557408 -0.19355573 0.06726968 -0.08309466 -0.13093834 -0.06580252 0.17536557 0.029310618 0.08677792 0.1133367 -0.10835217 0.13182874 -0.17666894 0.029419897 -0.1483316 0.058582064 0.1375577 0.28367412 -0.09582554 0.2859102 0.36078447 -0.18745454 0.0036792564 0.10040508 0.09223015 -0.21847287 0.32745627 -0.12667467 -0.21221508 -0.019130183 0.113624096
PROTEIN:8267 -0.38965088 -0.10616944 0.31836516 0.24821253 -0.017430417 0.0033891045 -0.15441357 -0.14152609 -0.3513767 -0.093252204 0.015851421 -0.18070273 -0.22855657 -0.002540073 -0.004009081 0.07355847 -0.1190161 0.027302848 0.34232605 0.3082943 0.15769753 0.20808098 0.24926445 -0.32476422 0.027002735 0.16777991 0.022446359 -0.23548752 0.10655608 0.09907257 0.1836106 -0.013880517 -0.090842426 -0.052285507 -0.20404018 -0.014798891 0.039023116 -0.08347649 0.066265516 -0.08309027 -0.04889325 0.20426436 0.09691352 -0.21935888 0.17797953 -0.16554402 0.04572703 -0.19741732 0.050663356 0.23504055 0.008608923 -0.20536731 0.1300708 0.11183265 -0.05910236 -0.13574344 0.15132155 0.09461317 -0.21448451 0.24577059 0.07862535 -0.20093149 0.033454772 -0.053599793
PROTEIN:20017 -0.09122745 -0.12578562 0.27162308 0.121116914 0.008029963 0.07356221 -0.06287305 -0.05113385 -0.3563574 -0.053302173 -0.118019946 -0.28664547 -0.1973943 -0.035506487 0.07613662 0.20692652 -0.065175064 -0.04869752 0.23072474 0.22385614 0.14417593 0.19562237 0.20503074 -0.30844063 0.01258985 0.3316213 -0.15626785 -0.17488223 0.12032223 -0.042782012 0.23197839 -0.082606725 -0.16733402 -0.016183894 -0.065660864 0.07509953 -0.11397053 -0.08659122 0.088741064 -0.24545997 -0.15437517 0.17706448 0.051669493 0.115060054 0.022719894 -0.15843406 0.03158108 -0.1747109 -0.042807795 0.10685457 0.1415294 -0.05464873 0.19766335 0.2922622 -0.030185495 0.09623207 0.21334198 0.00045756128 -0.23403122 0.22911224 -0.024894968 -0.18756911 -0.020752594 0.011715154
PROTEIN:7558 -0.044606593 -0.13135153 0.21736705 0.11539462 -0.04789868 0.013395716 -0.021527246 -0.03700657 -0.28166687 -0.16540022 -0.021035086 -0.1502275 -0.26936188 -0.008548252 0.13651523 0.35267395 -0.050203882 -0.007616416 0.29787526 0.31967205 0.13416299 0.23034167 0.06882516 -0.26847827 -0.06624709 0.26496413 -0.09194422 -0.1431922 0.054000452 0.08297215 0.092600904 -0.1132773 -0.101667754 0.010287108 -0.015155791 0.09109833 0.030162534 -0.24962127 -0.070118815 -0.12588263 -0.066709414 0.06268847 -0.013172655 -0.05367322 0.01471367 -0.12858282 -0.09399673 -0.22684006 -0.011079333 0.108889215 0.13598241 -0.21496485 0.23164155 0.2503799 -0.038416456 0.021249866 0.09243127 0.10410843 -0.3117767 0.3159141 0.026690604 -0.26661268 -0.13342094 0.00620072
PROTEIN:10038 -0.18999702 -0.13108666 0.3330942 0.15962902 -0.019281164 -0.06119406 -0.14661539 -0.034649387 -0.28477767 -0.1992637 -0.13498273 -0.08230637 -0.17342857 0.02411688 0.034262728 0.12394141 -0.13920361 0.022446485 0.13606605 0.3023487 0.054369222 0.21278566 0.1227215 -0.3547905 -0.12839672 0.21362199 -0.09780269 -0.060073994 0.054050386 0.028348606 0.19755077 -0.11238338 -0.16058785 -0.03521092 -0.08822092 -0.06651645 -0.04204023 -0.04545652 0.076813504 -0.0822179 -0.06835166 0.10951424 0.08316958 -0.14307663 0.20749275 -0.21751624 0.06494517 -0.24573581 0.12213432 0.14686532 0.262776 -0.14364964 0.15807201 0.30706784 0.044262256 -0.03960172 0.27967143 0.003183054 -0.1658214 0.26102284 0.118382245 -0.102306634 -0.0232215 0.07512733
PROTEIN:14086 -0.16450252 -0.039826244 0.2669677 0.028889516 0.16273695 -0.11421878 -0.21844348 0.14777257 -0.3895191 -0.15201838 0.0006973054 -0.17247598 -0.19747862 0.075621165 0.0507604 0.19486794 -0.066800855 -0.08937571 0.28837955 0.23918986 0.025283864 0.1763394 0.24633764 -0.30960292 -0.099271275 0.3413061 -0.07788305 -0.16905332 0.069765665 -0.04666035 0.17609881 -0.02331162 -0.14314705 -0.1894068 -0.19404586 0.04142206 -0.06738603 -0.19575761 0.053717084 -0.011914418 -0.14768764 0.20541729 0.008178212 -0.101017885 0.029813087 -0.2820989 0.068413876 -0.28783768 0.037866298 0.09631844 0.036316406 -0.12848692 0.19658682 0.044827584 -0.058054816 0.10931173 0.12820496 -0.08468931 -0.1748492 0.22999848 -0.08322894 -0.19564913 -0.01644834 -0.05715257
PROTEIN:19813 -0.14834017 -0.1285033 0.23180762 0.2332585 0.054028843 -0.02351 -0.10890934 0.1321268 -0.31287766 -0.17907676 0.031665985 -0.16042791 -0.244205 -0.15811458 -0.007198261 0.3361618 0.110923186 0.17722216 0.18447219 0.35155115 0.08817633 0.1662446 0.106977314 -0.3342971 -0.22680877 0.19768569 0.03596045 -0.16109191 0.13933587 0.012559636 0.1164406 -0.05477435 -0.029244365 -0.0498598 -0.16683714 0.016233051 -0.116311796 -0.11891158 -0.10090244 -0.033017363 -0.005021912 0.06329413 -0.062008627 -0.07097816 0.1438964 -0.12273731 0.0007752171 -0.18544015 0.12058056 0.085396275 0.2520702 -0.34983 0.2679822 0.15591972 -0.051058847 0.058255106 0.10227377 0.07929089 -0.23380752 0.1971529 0.045468837 -0.22545692 -0.044856224 -0.14212942
PROTEIN:19433 -0.14009668 -0.08407934 0.30074543 0.036506284 0.02259634 0.065833956 -0.0067913346 0.054931585 -0.49024805 -0.10387843 0.08829467 -0.22134939 -0.20634422 -0.0008252711 0.17751099 0.29094046 -0.028993031 -0.043616008 0.21014424 0.27788028 0.078769356 0.052259672 0.24249083 -0.30863723 -0.023611594 0.15897399 -0.08169395 0.02620477 0.19260974 0.07981348 0.21180001 -0.055860426 -0.097645156 0.005833635 0.008030184 0.0028779958 -0.047306687 -0.17397587 0.14621247 -0.21883166 -0.03520772 0.07531328 0.049383357 -0.11551231 0.20963563 -0.12294559 0.03214964 -0.16347103 0.09399283 -0.023971986 0.16547257 -0.06353467 0.12688795 0.27302253 -0.10445828 0.057569645 0.11396554 -0.032721847 -0.34412798 0.2027205 -0.031299666 -0.29950097 -0.06088223 -0.022904988
PROTEIN:20891 -0.10730963 -0.118673645 0.22985135 0.092113845 -0.13032512 0.00130653 -0.0111385705 0.026951106 -0.3169221 -0.10047191 0.038812034 -0.28510797 -0.10704867 -0.061922483 0.038523618 0.15957479 -0.06821852 -0.049208302 0.24575533 0.23711564 0.07770785 0.06290535 0.25626227 -0.48758352 -0.10909264 0.15605672 -0.03559798 -0.056600466 0.12745489 -0.03353474 0.23775735 -0.11206035 -0.13188052 -0.15268886 -0.11204732 0.0029573345 -0.029767253 -0.009706118 0.109492786 -0.12742758 0.047866434 0.0139844455 0.07084047 -0.1282704 0.2462222 -0.15269542 0.1195707 -0.11837506 0.065410465 0.17260121 0.23381677 -0.14671522 0.14600056 0.23198646 -0.0103484765 0.17918356 0.24338913 -0.123743735 -0.22477072 0.2650635 -0.069964506 -0.17640945 0.07165842 -0.0875719
PROTEIN:8782 -0.07026512 -0.19185188 0.27189717 0.23579629 0.04652249 0.065765664 -0.027455961 -0.12225453 -0.4338086 -0.14105682 0.08368052 -0.26181892 -0.14545067 0.06273501 0.18126005 0.25425348 0.015948663 0.065063536 0.2088346 0.23974238 0.026800914 0.028303 0.17524002 -0.27500576 0.05342368 0.33213508 -0.11284062 0.0012573143 0.21096112 0.120049156 0.16050798 0.008481243 -0.08295751 -0.04349893 -0.07459992 0.21968596 0.08391566 -0.016326262 0.0019367321 -0.03339992 -0.1280736 0.024219612 0.11956157 -0.22126594 0.24846111 -0.2702718 0.077977374 -0.13610725 -0.03533414 0.04860133 0.13633424 -0.08761497 0.12875445 0.22704817 -0.15500161 0.016125144 0.09859786 0.03075248 -0.07258536 0.22193074 -0.025281165 -0.36287126 0.048536144 -0.008026385
PROTEIN:11741 -0.05562378 -0.029335732 0.39208847 0.06557568 -0.08024268 -0.087575525 0.009521629 -0.005545398 -0.5812687 -0.17142817 -0.019451445 -0.20015483 -0.18751933 0.09626064 0.20822023 0.17672184 -0.07132418 -0.032719173 0.2732992 0.30427846 -0.079325266 -0.006775166 0.21066897 -0.3194643 0.0053571165 0.21685964 -0.36050987 -0.124205925 0.056285318 0.030126879 0.23525865 -0.123555735 -0.11561535 -0.12032428 -0.06702998 -0.008694365 0.10073761 -0.11504638 0.03222338 -0.12576737 -0.05981011 0.023939587 0.026365817 -0.06626041 0.12535726 -0.16970253 -0.047185857 -0.068101816 0.023910781 0.05575153 0.117518656 -0.15432933 -0.0063615185 0.2125349 -0.09352996 0.007314202 -0.030968266 0.00984007 -0.3050046 0.2016093 0.011788278 -0.12019218 -0.008430417 0.092884034
PROTEIN:21184 -0.114855036 -0.081595846 0.3474322 0.103792936 -0.031938575 0.05208299 -0.13575418 -0.04028306 -0.2649076 -0.083556935 0.09042107 -0.10245256 -0.12444078 -0.02736447 0.12526174 0.2659346 -0.10405388 0.043613292 0.27315608 0.3823583 0.11663064 0.25468057 0.18839267 -0.21608059 -0.21246144 0.21390736 0.068372004 -0.1475071 -0.03474718 0.04712792 0.1670532 0.01962239 -0.07448347 -0.03406591 -0.11898573 0.15011661 -0.051196914 -0.17281246 0.060319453 -0.18252137 -0.07977489 0.14984976 0.028323615 0.02891152 0.1436782 -0.1191398 0.042808697 -0.30993408 0.007969178 -0.05067896 0.21400365 -0.3190408 0.32842633 0.21498126 -0.10583837 0.06185102 0.06313651 -0.090013996 -0.21713363 0.32314137 0.167534 -0.09073937 0.03473138 0.046382938
PROTEIN:3630 -0.088732086 -0.0029202634 0.22485484 0.18263495 0.066607974 -0.1454657 -0.04566983 -0.006423135 -0.43208566 -0.34607276 0.11297924 -0.19026428 -0.17182584 0.029872255 -0.03497625 0.23300458 -0.11137287 -0.07203662 0.25853667 0.2456754 0.12745818 0.1153534 0.24442811 -0.29280287 0.075435586 0.15845263 0.05449643 -0.0812063 0.21607257 0.10891284 0.1145588 -0.030232871 -0.117380545 -0.0029198157 -0.075994134 0.0009475029 -0.011882815 -0.10944835 0.13562542 -0.1410463 -0.09327261 0.09483094 0.15149735 0.0020808731 0.13568257 -0.22176808 -0.015254174 -0.15164608 0.041460432 0.08442211 0.29173747 -0.078631066 0.11558849 0.31168222 -0.021110864 -0.10224065 -0.03673258 -0.08174 -0.23135196 0.17244129 0.03626319 -0.30631253 0.079834506 -0.07945785
9907 0.2921613 -0.48452717 0.13604924 0.04830612 0.11975737 -0.13942088 -0.19903596 -0.15987942 -0.1237848 0.30196324 0.08544281 -0.26839605 -0.15069121 -0.25217932 -0.029561542 0.36551198 -0.20714533 0.012462883 0.2162759 0.38083526 0.19815242 0.15387125 0.18442926 -0.36865553 -0.019818181 -0.035554532 0.11305657 0.05243327 -0.13977702 -0.18121238 0.13645588 0.18521804 0.008286703 0.065660916 -0.010772991 0.0499958 0.22991098 -0.07056181 -0.13475102 -0.00046484458 -0.08924313 -0.07746442 -0.018031502 -0.048229974 0.042141657 -0.090910174 -0.22978659 -0.07860312 0.053047307 0.07068503 0.21611209 -0.13539109 -0.01617514 0.1332067 0.042390827 -0.17235088 0.076811135 -0.18344323 -0.23735489 0.014704527 -0.4532991 -0.0007130835 -0.060200408 0.011930991
PROTEIN:8012 -0.063426554 0.16955775 -0.26167086 0.1215171 -0.026972547 0.13904075 -0.078122884 -0.18932432 -0.19920081 -0.2200488 0.37712392 -0.3037798 0.025641536 -0.4096196 0.30967867 0.107622884 -0.12617268 -0.0076408233 -0.09002028 0.51704675 0.06516182 0.16462271 0.19263591 0.001514225 -0.17526938 0.4070733 -0.19863915 -0.06334647 0.22629794 -0.11170425 -0.29878518 0.28029948 -0.02440684 0.15242931 -0.5211723 0.01803227 0.17173138 0.641733 0.024755197 0.08920419 0.16904162 0.113497436 -0.087467186 0.14623663 0.4165801 -0.21334527 0.08433044 -0.53177625 0.056160267 -0.086345255 0.038923677 -0.23607229 -0.0050383406 0.2764453 -0.054672558 -0.43298185 -0.2797368 -0.43163085 -0.0012566015 0.62288135 -0.013008532 0.024911068 -0.13821548 0.0965516
PROTEIN:4470 -0.113549404 -0.03401825 0.36401013 0.06340695 -0.07267499 -0.10147478 -0.16967899 0.08520769 -0.368729 -0.1203931 -0.051608633 -0.121376164 -0.030345567 -0.055588778 0.14207555 0.31546035 -0.048087787 0.0012372939 0.08579123 0.27885756 0.18159719 0.17271228 0.19561811 -0.3494522 -0.015826155 0.1930997 -0.06129618 -0.05527676 0.17815699 -0.07039438 0.1917607 -0.016539285 -0.054984085 -0.031570386 -0.04484158 0.15586168 -0.07368814 -0.16780989 0.10366093 -0.12624818 -0.05668054 -0.008679591 0.029334519 -0.13418701 0.21913369 -0.20929389 0.13229728 -0.038779665 -0.01869234 0.066131145 0.2203856 -0.08159007 0.18710336 0.26857084 0.13812937 0.017664097 0.083398 0.037408065 -0.2810849 0.3495495 -0.021888113 -0.18703642 -0.12643768 -0.07792584
PROTEIN:1774 -0.12897107 -0.03055587 0.31441122 0.18504697 0.12861809 0.03272869 -0.11181897 -0.08534827 -0.24493904 -0.083709314 -0.05791887 -0.26450896 -0.28705463 0.0084962025 0.06500694 0.21209103 -0.030123217 0.046179347 0.17588237 0.23342487 0.10683628 0.2539968 0.21648261 -0.38862905 -0.012031734 0.17569147 -0.10455035 -0.13338101 0.1742892 0.08552088 0.22265299 -0.018134661 -0.18208489 -0.08902361 -0.12891857 -0.11999446 0.017668609 -0.122386366 0.06373413 0.013310298 -0.1168223 0.060630053 -0.11193597 0.004573311 0.07428449 -0.2244473 0.13318947 -0.21341366 0.020758018 0.07482969 0.18434171 -0.21783629 0.15193146 0.2792067 -0.06654302 0.021287156 0.103435725 0.0922121 -0.1252584 0.29899618 -0.050095093 -0.1384726 0.03468701 -0.07902475
PROTEIN:8146 -0.25412974 -0.017069908 0.34025985 0.02879788 0.15590546 -0.15853839 -0.07892474 0.06864762 -0.30225828 -0.17210981 0.032274928 -0.3597648 -0.25000823 0.045460064 0.06424073 0.2968578 -0.091308035 0.16395964 0.281728 0.38600504 0.0280886 0.16273384 0.11353709 -0.368917 -0.07735053 0.16724852 0.016080605 -0.068126455 0.15966116 -0.043946806 0.08412327 -0.03894461 0.031868994 -0.07108629 -0.064884745 0.019747335 -0.104187906 -0.086552896 0.07768672 0.012638209 -0.09881799 0.10843734 0.12729378 -0.16135304 0.23911498 -0.109523095 -0.07901663 -0.12851813 0.007362769 0.21529436 0.23226987 -0.15648213 0.096776426 0.31422135 0.0076980116 -0.04023228 0.16327259 -0.051124297 -0.012366466 0.23650445 0.106509104 -0.1617054 0.052524116 -0.023974929
PROTEIN:9685 -0.13480148 0.003540488 0.2672876 -0.03929862 -0.09325685 -0.14005786 -0.14929004 -0.114188574 -0.3928595 -0.1848618 0.040346984 -0.21715683 -0.108444415 0.0011125153 0.012645896 0.21441056 0.07132003 -0.12798868 0.22821024 0.21124376 -0.0002901928 0.23569174 0.035300672 -0.39180925 -0.051356897 0.27908728 0.027545769 -0.104778975 0.110836044 -0.07245877 0.19752096 -0.0765262 -0.044010647 -0.08951234 -0.14896052 0.005805448 -0.078734644 -0.17637381 -0.05005665 -0.21152745 -0.008460231 0.09449461 0.1758479 -0.25087008 0.10571985 -0.06460149 -0.11906904 -0.09213608 -0.010024571 0.062979445 0.23437153 -0.21651709 0.17635135 0.26947376 0.09011706 0.1094066 0.058053017 -0.053578693 -0.29853824 0.29653758 -0.14685346 -0.2549224 -0.03119337 0.061952088
PROTEIN:4906 -0.2530204 -0.24939752 0.44106176 0.09883073 0.05537601 -0.075903095 0.087193534 0.027446052 -0.30220738 -0.0976335 0.19033596 -0.16812576 -0.15907691 -0.0826715 0.10053617 0.16409297 -0.036077622 0.18474308 0.17091085 0.30631638 0.10635772 0.09648377 0.17050192 -0.2377303 -0.16768792 0.42545244 -0.04434956 -0.12543775 0.0075304825 0.11153315 0.243738 -0.107191406 -0.019114072 -0.0067817527 -0.13461238 0.08533529 0.04778049 -0.16414376 0.03460281 -0.17607883 -0.12385047 0.13815507 0.042650856 -0.0308187 0.20082724 -0.109895274 0.14041106 -0.13428988 -0.06101772 0.030489333 0.21992773 -0.24467085 0.23449673 0.1779264 -0.10505955 -0.10537104 0.18281642 -0.046439383 -0.25358686 0.17142041 -0.003213212 -0.034730315 0.06801075 0.148355
PROTEIN:6359 -0.11723466 -0.07345068 0.28786704 0.04603229 0.07487193 -0.08760613 0.028953055 -0.009807219 -0.3361007 -0.099055015 0.023061734 -0.32846144 -0.2943362 0.05608831 0.22614054 0.13659272 -0.14876439 0.00013311414 0.29631764 0.29462147 0.10067628 0.10992858 0.1517552 -0.36106566 -0.07867923 0.1886291 -0.1383092 -0.19417278 0.0060144784 0.06730815 0.2686878 -0.19387309 -0.053744428 -0.0033286808 -0.09641425 0.105529875 -0.051171586 -0.02676645 0.16208887 -0.057418566 0.002010002 0.076267704 0.08721991 -0.26884127 0.20057027 -0.12812325 -0.03572071 0.072239555 0.08698209 0.021796975 0.16995867 -0.16184866 0.30753022 0.28540868 -0.026584629 -0.040153783 0.12734331 -0.08720641 -0.22711845 0.25994068 -0.015278571 -0.21047874 -0.0021083325 0.10136475
PROTEIN:19317 -0.16497396 -0.2013578 0.16167353 0.092971385 0.051680047 0.05195842 0.09896316 0.0055132015 -0.30473065 -0.20294335 0.08431293 -0.22554365 -0.19245082 -0.11523385 0.17417389 0.18634242 -0.012862815 -0.059292775 0.10956506 0.19914137 0.08465603 0.2336375 0.24060862 -0.38157684 -0.2087427 0.20091788 -0.10693214 -0.05920603 0.004519233 -0.096365914 0.07989771 -0.18125294 -0.12365464 0.09475647 -0.11159377 0.003118767 -0.083788075 -0.24099465 -0.02041955 0.15571493 -0.2192418 0.073947996 0.1336003 -0.16830051 0.26099744 -0.40450028 0.028488616 -0.24003467 0.12922361 0.09079344 0.16227412 -0.22221842 0.1556924 0.20590034 -0.07062699 -0.0371055 0.11620951 0.012929169 -0.17338836 0.23423375 -0.04294449 -0.28056288 0.02697355 -0.008065783
PROTEIN:1429 0.015125878 0.10070467 -0.16796173 0.19566612 -0.11823246 0.0002528087 0.16121143 -0.17643563 -0.12207266 -0.24071606 0.37096557 -0.36713722 0.05081307 -0.29173556 0.09296186 0.2156267 -0.15165319 0.0068392605 0.24245079 0.41148826 -0.011525967 0.16101696 0.17657062 -0.14193451 -0.43849313 0.35765892 -0.31601566 0.06271131 0.28527504 -0.34326047 -0.29215363 0.23772375 0.08196278 0.13676606 -0.47411445 -0.032407984 0.061464135 0.576873 0.15167502 -0.085370444 0.14618759 -0.045385905 0.041995756 0.00850358 0.33209804 -0.21932633 0.044602398 -0.34598494 0.08857279 -0.1930789 -0.13397963 -0.25347167 -0.084822305 0.2847038 -0.14511251 -0.34716368 -0.24375443 -0.5583669 -0.07512695 0.4481781 -0.03275922 0.08710784 -0.2377672 0.056051668
PROTEIN:11125 -0.26609907 -0.0029338647 0.3213945 0.17968145 -0.02472083 -0.068120725 -0.13186724 0.0010370441 -0.34329987 -0.07400116 -0.1014164 -0.24143742 -0.21798158 -0.037267625 0.045313865 0.1919758 0.1845383 -0.13328551 0.21215136 0.28203297 -0.004627535 0.15336461 0.124426894 -0.4046375 -0.0058885887 0.20399119 0.0071281176 -0.14092217 0.11836279 0.12191213 0.1122617 -0.021298034 -0.07575723 -0.016725795 -0.10325734 -0.014855268 -0.0063412706 -0.18247646 0.08356288 -0.029301103 -0.09143166 0.07783097 0.03788473 -0.04325983 0.17055182 -0.12528256 0.0410205 -0.2851087 -0.008964952 0.14112753 0.059329573 -0.14770332 0.1455075 0.1909082 -0.07038631 -0.11766313 0.21865301 -0.038274348 -0.24387714 0.3356621 -0.02805664 -0.26244134 -0.04731428 0.0083233155
PROTEIN:4587 -0.0734976 0.11288531 -0.16447961 -0.034094125 0.0905405 0.009017328 -0.099545054 -0.28436902 -0.32445836 -0.17269918 0.32716236 -0.33797264 0.04428845 -0.27873772 0.10423814 0.016746065 -0.11482307 0.014047443 0.14810096 0.33916906 0.05921067 0.18109468 0.2112245 -0.16751528 -0.34465054 0.45043367 -0.30767238 0.143322 0.15164308 -0.39411458 -0.25708854 0.48282784 0.053292155 0.09370771 -0.4579043 0.047532853 -0.005955663 0.3793735 0.041159734 0.047964416 0.09494125 0.09990747 -0.038236286 0.09152697 0.49215046 -0.22188346 0.024735386 -0.5194831 -0.0046395496 -0.11698724 -0.09011216 -0.26874605 -0.17312236 0.35480142 -0.10283801 -0.33136082 -0.25781035 -0.47825494 0.036457114 0.4811061 -0.0148430625 0.25763446 -0.23920569 0.12227786
PROTEIN:21294 -0.13913815 -0.053573973 0.32251272 0.032067183 -0.087495565 -0.082861125 0.1027622 -0.054006405 -0.32417622 -0.13399597 0.071000226 -0.101102 -0.18800403 -0.14654234 0.041422278 0.24429664 -0.17356116 -0.12165286 0.2203869 0.20083153 0.020226838 0.27025658 0.18312724 -0.3252181 -0.10895963 0.1252247 -0.2655432 -0.24498513 0.106452584 -0.0907875 0.2121062 -0.30303606 -0.23163852 -0.04741344 -0.10601254 -0.023092296 0.0023541069 -0.10739713 0.010540183 -0.22715965 0.010019847 0.01507111 0.035459477 -0.21681918 0.022360068 -0.2928228 0.06351799 -0.17519583 0.14775263 0.047315553 0.12141382 -0.18239857 0.18222584 0.23715574 0.012716779 0.043287907 0.11946071 -0.066199705 -0.26737493 0.22732966 -0.052776333 -0.067550376 -0.0893976 0.03057084
PROTEIN:9979 -0.15446825 -0.07690655 0.34374925 0.14349906 -0.02133241 -0.13339199 -0.043421574 0.09024242 -0.3682469 -0.25797176 -0.0019836111 -0.30729917 -0.27894026 0.08870288 -0.026740849 0.340143 0.122578755 0.08576105 0.22643507 0.08354222 0.12703831 0.17806208 -0.04754233 -0.32510886 -0.058709208 0.2983153 -0.051257566 -0.109570235 0.18724936 0.074601136 0.052640483 0.008035458 -0.11214451 -0.0072714225 -0.10529966 -0.06177531 0.046573747 -0.29022107 0.08089067 -0.120011576 -0.07085722 0.057546142 -0.16996698 0.11405197 0.15278727 -0.20511349 0.036304973 -0.1551924 -0.09388811 -0.064826034 0.2677883 -0.07691268 0.20351015 0.35523528 -0.008082637 -0.09052555 0.12249526 -0.12899914 -0.23765786 0.17567293 -0.10410974 -0.21018063 0.055410907 -0.0037653707
PROTEIN:13820 -0.1893217 -0.1637822 0.35080478 0.123068124 -0.09081735 0.012981019 0.012255852 0.06098631 -0.42940116 -0.27112088 0.092856355 -0.19568293 -0.12051939 -0.0014840859 0.1178936 0.030513933 -0.022639658 0.08146596 0.10694059 0.22364967 0.11165714 0.18718871 0.17034717 -0.39197826 -0.09956854 0.14594789 -0.07212326 -0.11600148 0.245978 0.0015439009 0.15281549 -0.03136929 -0.07880732 -0.11669581 -0.09196108 -0.036554996 0.0135542145 -0.2725118 0.017201371 -0.12682739 -0.04603621 0.015788317 0.24151173 -0.0033099474 0.07912379 -0.30750853 -0.06861973 -0.1259377 -0.05992567 0.14381717 0.2119078 -0.20185086 0.12639727 0.25606987 -0.070640415 -0.07935775 0.09594271 0.026176913 -0.15452054 0.19511059 -0.101310365 -0.20562819 -0.059562057 0.02436064
PROTEIN:6540 -0.03868486 -0.08080598 0.2308502 0.22384147 0.049395178 -0.13921545 0.037380576 0.06590073 -0.38729516 -0.06517983 0.029862585 -0.24227661 -0.11203709 -0.021068994 0.058170658 0.12670104 -0.20740618 0.005459964 0.29031336 0.22905663 0.0019773329 0.25874263 0.17922981 -0.2898073 -0.019388614 0.2322682 0.050504364 -0.17144075 0.101124875 0.14310881 0.28631762 -0.028471177 -0.07307784 0.05850895 -0.1891788 0.015037795 -0.054166626 -0.104449034 0.094976984 -0.1561208 0.020341821 0.12061377 0.07758288 -0.18246332 0.108546264 -0.1357432 -0.017769158 -0.19285953 0.061252307 -0.089362 0.15908273 -0.22245112 0.27031437 0.39137086 -0.030031918 0.018187972 0.093873434 0.120989844 -0.1985008 0.33645698 -0.02840125 -0.11521938 -0.059126828 0.012197126
PROTEIN:11681 -0.10641871 -0.09856199 0.18581742 0.030963717 0.043634873 -0.06495618 -0.11094626 0.092201285 -0.24716124 -0.20139268 -0.077184066 -0.2480159 -0.23855218 -0.09691573 0.09949076 0.1906431 -0.021541841 0.061174706 0.14136076 0.36123762 0.20372242 0.23736191 0.15274408 -0.3152224 -0.121841095 0.23904704 0.005791906 -0.06436889 -0.0565595 -0.054178137 0.22203214 -0.06497872 -0.062272813 -0.033345535 -0.19749574 -0.0021171651 -0.07346953 -0.028253721 0.114110745 -0.16179715 0.037500184 -0.15312521 0.030604713 -0.2007271 0.19540943 -0.09654359 0.12608705 -0.20057653 0.09005789 0.06272443 0.28519952 -0.19193879 0.24680002 0.23512532 0.071115986 0.09315886 0.21013673 -0.11697615 -0.25107145 0.20588422 0.11309504 -0.26226777 -0.08405964 -0.10796836
PROTEIN:7048 -0.12803948 -0.17727077 0.33624116 -0.04169776 -0.05008896 -0.25076738 -0.15873078 0.090216264 -0.4546281 -0.14525533 0.13985269 -0.21079157 -0.25747845 -0.003989621 0.1806869 0.13971412 -0.10016273 0.12877192 0.13007477 0.44643012 0.021509804 0.0038504973 0.16473292 -0.35669702 -0.019076375 0.27704397 -0.0030206519 0.121342376 0.024907066 0.10194572 0.2454115 -0.085108764 -0.11375357 0.008839689 -0.06748479 -0.10231433 0.014432774 -0.1157663 0.036894683 0.084458075 -0.15805174 -0.12342291 -0.041130375 -0.05650587 0.21608528 -0.18492898 0.09307433 -0.1054578 -0.08861047 0.08532414 0.08804166 -0.12401079 0.12185209 0.29367992 -0.10728761 -0.07085898 0.23407799 -0.0070847636 -0.18590106 0.21813829 -0.038563907 -0.11726157 0.00851181 -0.07798789
PROTEIN:7525 -0.06476511 -0.11801788 0.2766249 0.23398492 0.09422194 0.01846996 -0.1627862 -0.119651735 -0.27363753 -0.19020899 0.12578095 -0.31775242 -0.07643192 0.16555525 0.081439525 0.20267986 -0.07099415 -0.0108055705 0.21875443 0.17780207 0.013293265 0.12533309 0.102784686 -0.43000102 0.01462686 0.082715794 -0.07968369 -0.036481846 0.26236653 -0.015769215 0.26176924 -0.0020925954 -0.06757675 -0.18310454 -0.047266968 0.058738347 0.0075229895 -0.055770356 0.13648117 -0.17885093 -0.14795917 0.005033037 -0.0050958977 -0.26483878 0.053051677 -0.07115861 0.18674326 -0.30233538 -0.037368424 0.12141643 0.11587754 -0.13778257 0.15504278 0.27564925 0.08116018 0.039610002 0.13073514 -0.13161346 -0.09796588 0.39951208 -0.19752648 -0.3350782 -0.15890652 -0.1162351
PROTEIN:3834 -0.09170385 -0.026076337 0.28174442 0.13373028 0.032875616 -0.018182969 -0.16540982 0.16961624 -0.31752762 -0.13713962 -0.010253586 -0.24696626 -0.10767681 0.017168924 0.030719396 0.19498329 -0.026285205 -0.09537044 0.17210886 0.3350085 0.061493717 0.284654 0.2742667 -0.2684351 -0.08990453 0.20914045 0.014584864 0.036797103 0.20729491 0.059785325 0.15495259 -0.045447 -0.05730899 -0.0036040498 -0.17858474 0.09106867 0.054128684 -0.22586733 0.1116808 -0.093961656 -0.11226404 0.2045546 0.07128917 0.080311514 0.17934132 -0.2554832 0.019153262 -0.06950899 0.00072714523 -0.0051296237 0.23852004 -0.08621348 0.23913054 0.23900884 -0.17358205 0.045520846 0.0684559 0.087848805 -0.3119976 0.2595887 -0.05367753 -0.12174352 0.044838842 0.079004906
PROTEIN:1108 -0.088584915 -0.09459625 0.26184726 0.1710908 0.08451922 0.024269266 -0.058523674 0.04156059 -0.26391158 -0.22271372 0.13405573 -0.23737286 -0.11229465 -0.024444204 0.006445789 0.052886013 -0.056482933 0.03251093 0.077506125 0.3226385 0.15184331 -0.014799563 0.075536594 -0.28662273 -0.02797132 0.32451183 -0.14391361 0.023962328 0.046431765 0.12539223 0.2663985 -0.050216004 -0.19579276 -0.13934779 -0.18041717 -0.051475 -0.043678947 -0.18293314 0.17276283 -0.04234624 -0.18546174 0.1699213 0.05196013 -0.043242887 0.15292305 -0.2943704 -0.03807172 -0.18030745 0.11732259 0.012331841 0.3302039 -0.3265354 0.18437748 0.25640982 -0.03797616 0.10351702 0.080401175 -0.014089725 -0.28212884 0.2846624 -0.026192827 -0.17149727 0.01694399 0.16668862
PROTEIN:3775 0.072242774 -0.048832793 -0.13094814 0.13619061 -0.06955456 -0.0070676683 -0.10610088 -0.34047577 -0.15061903 -0.1981222 0.3179392 -0.22576644 -0.049128175 -0.20260018 0.14090633 0.0047175647 -0.15843825 -0.15046717 0.055276886 0.39041173 -0.03761953 0.039374225 0.07981093 -0.13091943 -0.39457235 0.36338365 -0.37571952 -0.031175246 0.09649723 -0.23953496 -0.21014039 0.27773973 -0.00019274706 0.25976387 -0.6495533 0.047672585 -0.027032876 0.48951623 0.038335845 0.009919998 0.16711684 -0.04260845 -0.086007506 0.064103864 0.30954084 -0.305858 -0.020719355 -0.51774555 0.046561085 0.0099258125 -0.0993637 -0.16062887 0.018457042 0.40691012 -0.14348921 -0.43016332 -0.18531904 -0.3654849 -0.0040251953 0.5428583 -0.064367056 0.18015711 -0.2172982 0.26578104
PROTEIN:1426 -0.15151376 -0.18699832 0.17785838 0.08899455 0.018445536 -0.07147935 -0.11465277 -0.0006186619 -0.3823034 -0.34057245 0.06994103 -0.13702863 -0.23089683 0.02186067 0.2107812 0.098159924 -0.10764352 0.109898485 0.17719395 0.25600523 0.14696218 0.21802443 0.16434334 -0.3012721 -0.010875774 0.2695631 -0.043768603 -0.13530312 0.18453248 -0.049001966 0.19975108 0.02665196 -0.06377839 -0.05220895 -0.0933865 0.27520573 -0.022136519 -0.26510847 0.018662216 -0.061943803 -0.23125117 -0.032190267 0.21071438 -0.19019687 0.20798771 -0.25790188 0.09703864 -0.28550896 0.09556999 0.14571749 0.036129285 -0.14153545 0.07138777 0.17336978 0.0011640646 -0.025072562 0.13716157 0.09564111 -0.1806255 0.2182263 -0.07387788 -0.21189094 -0.1755485 0.07923682
PROTEIN:16803 -0.044889327 -0.082978174 0.24874514 0.15240906 -0.0017445448 -0.09771819 -0.059059955 0.023831809 -0.36452273 -0.13117523 0.022503344 -0.29130575 -0.13403022 -0.05221158 -0.013167784 0.3832271 -0.08057425 -0.08114373 0.309159 0.2081383 0.100922436 0.16232474 0.12538934 -0.3893323 -0.06518668 0.25615776 -0.08280791 -0.080157496 0.080222145 0.11047378 0.09112281 -0.07774324 -0.11304482 -0.040551737 -0.07978034 0.025816485 -0.045313567 -0.026633224 0.042185534 -0.09404197 -0.07633954 -0.050133817 0.017741576 -0.16087864 0.086206876 -0.13728493 0.030759016 -0.227099 0.029673917 0.020107206 0.22299953 -0.19613779 0.07156116 0.3198169 -0.05481696 0.049606904 0.14843851 0.019240452 -0.1663653 0.20874527 -0.07544437 -0.11477148 -0.029871663 -0.06271354
PROTEIN:11974 0.016173277 0.0807621 -0.13963649 0.12830374 0.10029709 0.12775189 0.016617686 -0.3704641 -0.2640025 -0.26979834 0.3455164 -0.5381511 -0.040299557 -0.16317093 0.064359404 0.22217226 -0.1323318 -0.13232113 -0.030476922 0.30848718 -0.03390735 0.23214474 0.14925416 -0.20065103 -0.39644414 0.3646198 -0.38920116 -0.025021583 0.2318314 -0.34009188 -0.33728874 0.44234782 0.0074400553 0.16780812 -0.42534378 0.048206683 0.07470137 0.4780096 -0.026153648 0.0004111806 0.11442106 -0.06474319 -0.17921078 0.13506502 0.23476861 -0.25608715 -0.11924304 -0.4518492 -0.09864387 0.010701051 0.063247725 -0.15213808 -0.33164915 0.3659023 -0.08204764 -0.4052691 -0.37835395 -0.312668 0.049368076 0.44571024 0.024915047 0.23121743 -0.27312616 0.09876724
PROTEIN:16610 -0.020256942 0.11831272 -0.15460517 0.08700507 0.014104307 0.040502764 -0.0019589297 -0.23942135 -0.2531976 -0.105170496 0.34244922 -0.19963735 0.051402997 -0.40677541 0.16256912 0.057255592 -0.2095673 -0.1002835 0.018806452 0.41203338 0.13324383 0.18514827 0.15200594 -0.17707919 -0.36069041 0.35940188 -0.27670968 0.12176917 0.27252805 -0.11955392 -0.2977433 0.13341205 0.015333799 0.11200251 -0.5339008 0.0732716 0.12874074 0.6088449 0.031068277 0.12926218 0.17212202 0.1914293 -0.11042068 0.19319217 0.32934675 -0.3310591 -0.05918369 -0.38287792 -0.012306365 -0.037286565 0.07772669 -0.06387918 -0.04139176 0.29903424 -0.062015124 -0.43683627 -0.14576772 -0.4754822 0.006570374 0.5288714 -0.0516852 0.18231115 -0.07384173 0.10291605
PROTEIN:17994 -0.2612616 -0.24090813 0.3485099 0.20062052 -0.03275732 -0.15739343 -0.021948256 0.036931884 -0.41283673 -0.19650207 0.054582775 -0.2473734 -0.2165867 -0.072202384 -0.07328561 0.16761427 -0.020969957 -0.07887797 0.27332956 0.32773885 0.070811465 0.051210094 0.16263185 -0.24953139 -0.11442363 0.27763388 0.016247919 -0.09613304 0.04891736 0.13557504 0.17545478 -0.040070992 -0.01210624 -0.06788081 -0.08709309 0.1870607 0.120674156 -0.07002848 0.18101992 -0.09635755 -0.13484436 -0.056856994 0.042272154 -0.10105289 0.084932595 -0.18293695 -0.018760225 -0.09835022 0.10384779 0.094818234 0.21910182 -0.16937323 -0.005575073 0.25668243 0.06464316 0.03923059 0.16852878 0.05495824 -0.35249424 0.16873531 0.10495402 -0.14493395 -0.09781959 0.12013252
PROTEIN:3385 -0.14992455 -0.12997043 0.40763682 0.13292463 0.07948028 -0.13078043 -0.10301535 0.08514081 -0.39103246 -0.11546262 0.19001853 -0.23415798 -0.18851957 -0.1057521 0.11458733 0.20856543 0.09037194 -0.07496193 0.14619203 0.30059174 0.046745807 0.15240775 0.21820286 -0.3052476 -0.025356464 0.22282556 0.020693397 -0.11342196 0.07830144 0.14632581 0.14666069 -0.09428527 0.037933085 0.018709995 -0.07090739 -0.039879516 0.10082385 -0.030269265 -0.08126007 -0.05980278 -0.07459942 -0.02474392 -0.041654382 0.07960095 0.16369294 -0.11762599 0.107509226 -0.08764604 0.0008597322 0.0563981 0.19244197 -0.15808718 0.18240306 0.24709728 -0.18671612 -0.07163043 0.09113933 0.07514686 -0.28142083 0.2954234 -0.030080222 -0.18753166 0.07497785 0.02540842
PROTEIN:9959 -0.11493342 -0.08199649 0.25279954 0.27521256 -0.1347677 0.011992061 -0.17427081 -0.08154357 -0.22837485 -0.22154042 0.14765885 -0.17430414 -0.14634523 0.092854194 -0.10435566 0.27814192 0.045862135 -0.07561577 0.15080948 0.27535552 -0.002076661 0.16115019 0.3037647 -0.4031008 -0.013298377 0.22553451 -0.07087731 0.053155694 0.13970871 -0.04286848 0.21843229 -0.04599995 -0.11803617 0.13789326 -0.26543817 0.06286913 -0.015539732 -0.18918589 0.054242942 -0.14132258 -0.01721747 0.08322993 0.09417851 -0.011190373 0.31685895 -0.22804046 0.12396354 -0.053729564 -0.04470482 0.113346726 0.21773253 -0.19296515 0.25726858 0.18857324 -0.05786972 -0.00496592 0.1426149 0.0044630743 -0.21651214 0.23288886 -0.009526715 -0.18892759 -0.028510286 -0.052019108
PROTEIN:20115 0.023236316 -0.03308372 0.23208877 0.19425718 -0.0015843052 -0.036565423 -0.12768121 0.09204421 -0.2527666 -0.13920914 0.16662964 -0.23031093 -0.29878148 -0.08579608 0.09700159 0.183509 -0.1098739 0.12828086 0.23356278 0.34835526 0.016048774 0.07871014 0.16160455 -0.33096132 -0.12274653 0.16914047 0.06920711 -0.08586423 0.06979195 -0.043176442 0.1648111 -0.07119786 -0.13271458 0.08192723 -0.088973574 0.029577108 0.05117967 -0.29647067 0.23139656 -0.11392784 -0.1781212 0.007515597 0.15675841 -0.03760262 0.19174555 -0.2556347 -0.09379136 -0.11067152 0.07256838 -0.06662165 0.3380112 -0.12959285 0.27119437 0.23771952 0.059714008 -0.0010300342 0.010096308 0.06953644 -0.27673188 0.30015305 -0.04653526 -0.17258653 -0.06890374 0.008774244
PROTEIN:77 0.46204066 -0.5350267 -0.2833606 0.305631 -0.41781324 0.07595687 -0.5231447 0.63859767 -0.19223335 0.13668472 0.56324697 -0.14170277 -0.58346146 -0.03587469 0.42378724 -0.20932311 -0.107767105 0.1629874 0.7536608 -0.23834202 0.62983066 0.6175259 0.15780053 -0.70574236 0.15789406 0.0696621 -0.2369191 -0.20540334 -0.17150311 0.08294562 0.17010489 0.6307144 -0.27060324 -0.12991753 0.10425195 -0.18724535 0.4198511 0.07706162 -0.60064703 -0.26860753 0.1805966 0.6567016 -0.07611588 -0.23405412 0.029207043 -0.5871865 -0.15977277 -0.3021569 0.3367183 -0.24766664 0.45288032 0.20266739 -0.31066114 0.29610458 0.6572231 -0.2976796 -0.14193103 -0.34119368 -0.586249 -0.27217832 0.2848513 0.23453192 -0.13221666 0.33553466
PROTEIN:7559 -0.28870052 -0.11078769 0.25496233 0.06489114 0.036085762 -0.13951881 -0.07388797 0.06140026 -0.45240083 -0.21859896 -0.1022015 -0.17227365 -0.18455902 0.023978472 0.0145800095 0.031103835 0.056687333 -0.087635614 0.042659838 0.27582186 0.12471362 0.3085952 0.22642814 -0.3599288 -0.039557192 0.24568093 0.058684897 0.009814985 0.16213126 0.14716567 0.18931629 0.0011141914 -0.13311386 -0.10705147 -0.26823038 0.04080309 0.008750282 -0.07198868 -0.12512785 -0.06683382 -0.09800523 0.033784546 0.053854525 -0.18638605 0.107770674 -0.07463298 -0.012787216 -0.14521657 -0.06563474 0.14577408 0.14695455 -0.08197486 -0.04819542 0.28969866 -0.053094808 -0.0245236 0.026533775 -0.09364037 -0.23685053 0.3192317 -0.075456485 -0.33436182 -0.039965328 0.06052042
8964 0.16959463 -0.020641759 0.015091391 0.2609976 0.12838341 0.02845243 -0.01117626 -0.08125932 -0.45532465 0.035696514 -0.008614744 -0.11257708 -0.114738174 0.003948351 -0.022087108 0.5581247 -0.09629625 0.14776051 0.070639394 0.30725515 0.034780197 0.1744019 0.18615021 -0.30576316 -0.026003359 0.032943293 -0.08100247 -0.06132077 -0.09710254 0.09565299 0.2670406 0.20286483 -0.13395056 -0.11288217 -0.112797305 0.082272336 0.26599956 -0.09806978 0.12595314 -0.3408211 -0.043151382 -0.005881873 0.15094745 0.11384856 0.2538619 -0.290936 -0.200188 -0.035162177 0.10489804 0.21038239 -0.04423003 -0.07450386 0.12511508 0.00614038 0.20199755 0.048738647 0.16434312 -0.2616904 0.009618288 0.026438875 -0.21179865 -0.21511337 -0.11469478 0.106390335
311 0.23205404 -0.31551984 0.19083261 0.16751057 0.02027462 -0.22414419 0.15819332 -0.14441282 -0.27707738 0.20220242 -0.076557115 -0.1832925 -0.2059747 -0.30907476 -0.20149386 0.3480713 -0.17999674 0.14473411 -0.04427865 0.43312034 0.14635362 0.19414167 0.08860737 -0.17456287 -0.037856985 -0.065358244 -0.080004245 -0.12131341 0.057708006 -0.21026836 -0.015085981 -0.0104472395 -0.12588547 0.1071717 -0.06579895 -0.026771553 -0.0245763 -0.13343625 0.005147895 -0.07785381 -0.4099746 -0.056682307 -0.03095765 -0.06230153 0.20044099 -0.11819941 -0.054993648 -0.21170169 0.1510393 0.13377032 0.026860913 0.08808106 0.016079832 0.17990083 -0.07178002 0.0044984003 -0.051899996 -0.21272306 -0.20690705 0.042990934 -0.46250764 0.036623538 0.095496744 0.11049669
0040 -0.0074469345 -0.20582159 0.21931575 0.12777258 0.07914659 -0.0739616 0.11397637 -0.26839358 -0.34304786 0.09229637 0.11039527 -0.22492701 0.111048624 0.019582462 -0.071154885 0.14705633 -0.036556885 -0.05414509 0.079518214 0.43609124 0.12432056 0.16884556 0.20274462 -0.34708703 -0.080830485 -0.00034868313 -0.10166685 -0.14530592 0.14325857 0.097532555 0.023380429 0.15587577 0.15468158 -0.021177009 -0.05524433 -0.12039069 0.088500485 0.023224276 0.13490722 -0.091792636 -0.15925299 0.08583559 0.0058902088 -0.046601597 0.06407069 0.02602053 -0.45352918 -0.17964937 -0.1234664 0.031160016 0.11356224 -0.0017874079 0.2626725 -0.10589809 0.044374563 -0.216539 -0.054120973 -0.20832023 -0.14229275 -0.2539435 -0.29055986 -0.1826115 -0.07686128 0.31355244
3734 0.21886079 -0.02658601 0.043981068 0.03234436 0.038518004 0.1451665 0.087291375 0.32953003 -0.61730874 -0.03367266 0.067625694 -0.08691685 -0.23669477 0.03953021 -0.06842666 0.56829286 0.04694414 0.1256019 -0.18690482 0.35950667 0.034284692 0.20450802 0.16835181 -0.2944233 -0.10291113 0.16405363 0.13467315 -0.08123738 -0.0458908 -0.09878658 -0.006052076 -0.07476682 -0.06917017 -0.09010769 -0.21071143 -0.06530464 0.19414414 0.0632793 -0.00072945614 -0.1714705 -0.06049672 -0.06839094 0.036813863 -0.18329884 0.34282088 -0.1009364 -0.12786804 -0.089802474 0.03498942 0.18491925 -0.06690891 -0.00546236 0.41273192 -0.015458261 0.23416398 0.048979614 0.20282249 -0.12540427 -0.13540466 -0.047249157 -0.30978692 0.060442667 -0.11401982 0.20711845
5491 0.41334268 -0.18809798 0.13098623 0.20072697 -0.049593154 -0.28844804 -0.24466735 -0.03233991 -0.12893748 0.08511978 -0.25549972 -0.19744834 0.08926856 -0.21670161 0.15575396 0.3430657 -0.072571814 0.108708404 0.112690784 0.08227326 0.22126135 0.055135462 0.24684565 -0.25912187 -0.04660832 0.0052463007 -0.3075087 -0.27111605 0.13596733 -0.080763355 0.22023565 0.31692553 0.26177344 0.017024385 -0.12346876 -0.040546983 0.19714153 -0.0073871487 -0.037184745 -0.024669152 -0.075042866 0.08823978 -0.014950333 -0.13853624 0.16180527 -0.21393757 -0.23128116 -0.47089753 -0.015233453 0.18602438 -0.05615982 -0.015628925 0.20822264 0.24715951 -0.18935736 -0.10898552 -0.072844185 -0.11938878 -0.3160539 -0.19457038 -0.114062876 0.14441618 -0.00093534205 0.17709306
8853 -0.0023438274 -0.11920958 0.048491795 0.2011793 0.021803146 -0.27770212 0.015542923 -0.17033243 -0.514379 -0.005640638 0.025572347 -0.31422782 -0.18402411 -0.014270373 0.2290875 0.14690821 -0.034769066 -0.016743213 -0.0074391933 0.31746766 0.13249172 0.229082 0.1397255 -0.37277874 -0.00687604 -0.012015585 0.015997212 -0.006836409 0.05831422 -0.11085175 0.059724186 0.075268075 0.077277206 -0.10065089 0.010382378 -0.08052032 0.19360782 0.14737046 -0.008932737 -0.23730695 0.037511494 0.12755807 -0.027087133 0.005320047 0.10047206 0.061596088 -0.11019522 -0.11479946 -0.01389602 0.22780868 -0.017031392 -0.11021702 0.29218978 -0.168698 0.13686056 -0.2845048 0.12127559 0.064152725 -0.08575994 -0.0712049 -0.4473572 0.02881186 -0.013624031 0.3705612
4311 0.20494874 -0.46516192 0.23027033 0.29054332 2.0720423e-05 -0.31853163 -0.030250961 -0.26900542 -0.20488386 0.37056512 0.12814091 -0.19045146 -0.06305507 0.10142316 0.04486395 0.32662213 -0.25775945 0.28436756 -0.19117682 0.341191 0.21462491 0.28972784 0.14820212 -0.116934836 0.27653015 0.058333937 -0.15458418 0.14320736 0.085325174 -0.20653671 0.019068446 -0.09790793 0.022711363 0.18043105 0.037216984 -0.11328492 -0.08342587 -0.046011176 0.095642954 -0.20136581 0.08174069 -0.22233212 0.008528897 -0.13057424 0.20317961 -0.19161452 -0.09385902 -0.18004556 0.011586027 0.4349093 0.13179104 -0.08933435 0.01687883 0.11344654 -0.09207015 -0.08537815 -0.049261127 -0.24453928 -0.21563587 0.13818741 -0.109587565 -0.028250616 0.11364329 0.3309999
0066 0.061483525 -0.1452814 0.1466736 0.30296457 -0.11088141 -0.0101943165 0.0812367 -0.016677963 -0.2441244 0.12837899 -0.01303438 -0.3012964 -0.0062732887 0.13440971 0.025462266 0.13785167 -0.06817881 0.032480795 -0.025535056 0.4345419 0.30907246 -0.020786306 0.07364199 -0.44612068 0.06495923 0.04311589 -0.2627556 0.008680953 -0.020617316 0.028007708 0.1606515 0.058489416 0.16503756 -0.1591449 -0.114411995 -0.13830413 0.24274486 0.019948266 0.19511133 -0.08854801 -0.023166286 -0.08102109 -0.10712647 -0.04710607 0.06473869 -0.0013188994 -0.20723507 -0.32938048 0.06486551 -0.053983074 0.119877875 0.028618556 0.36196575 0.023696763 0.002889615 -0.07678595 0.08484862 -0.18265171 -0.09299302 -0.26770535 -0.23915456 -0.1435198 -0.17642291 0.38889506
0331 0.09637406 -0.13062027 0.052859608 0.23779058 -0.10554903 -0.3984153 -0.086427934 -0.10006745 -0.08523599 -0.13613135 0.027916504 0.007026604 0.14094417 -0.026262399 0.013510943 0.37234715 -0.051693458 0.074495666 -0.037194066 0.34779578 0.37990797 0.48494768 0.26792887 -0.1300867 0.0477462 0.0597377 -0.26975682 0.09946212 0.032943204 -0.15929948 -0.09627519 -0.08230885 -0.0052756947 0.0845558 -0.097743586 -0.11509049 0.29907486 -0.051090945 -0.06855493 0.040823493 -0.12247107 0.009224412 -0.14558887 -0.11679054 0.3795488 0.045787264 -0.110911705 -0.42258534 0.15817586 0.19815534 0.197019 -0.07429808 0.07690548 0.18278615 -0.097515725 0.057897188 -0.022522679 -0.21978049 -0.20065583 -0.14415981 -0.40112987 -0.09873596 0.17525536 -0.0151376845
9920 0.12495349 0.012607538 0.19096817 0.26644358 0.13773417 -0.24068312 -0.043757398 -0.10043168 -0.36720252 0.110339426 -0.00190473 -0.16299647 -0.07594949 0.08134985 0.08132768 0.20381135 -0.09795933 -0.06233106 0.1189487 0.2766418 0.46646354 0.06267953 0.07288933 -0.31674093 0.03033692 -0.09601723 -0.13258615 0.010530213 0.13535598 -0.21485494 0.091385014 0.039712586 -0.060045466 -0.04464418 -0.2377257 -0.118669495 0.19489066 0.030666973 -0.05124035 0.2075629 0.03894038 0.048198767 -0.102317 -0.08368331 0.057960358 -0.23664482 -0.1924369 -0.33230728 -0.09958782 0.16050789 0.10225484 0.022395885 0.40986666 -0.11535363 0.1477958 0.044457696 -0.007943646 -0.09483085 -0.048015147 -0.23185918 -0.2570735 -0.017989403 0.023452872 0.20987172
9962 0.14696637 -0.2347267 0.12082916 -0.06832589 0.17906061 -0.11592746 0.02405873 -0.06084627 -0.554117 0.112877116 -0.01917022 -0.12881388 -0.16769329 0.040280074 -0.10419393 0.34171715 -0.1057762 -0.12943958 -0.2649931 0.032104276 0.2642047 0.29238513 0.08008377 -0.49506903 0.018027686 0.21358973 0.053769685 -0.1301175 -0.28174672 -0.0084588 0.013188357 -0.028453527 0.060025502 -0.06709583 -0.49611887 -0.25546327 0.17113782 0.072127186 0.005541806 0.062305786 -0.08721593 -0.1157006 0.026714 0.04230859 0.17800473 -0.047233846 -0.11959314 -0.07613788 -0.1276098 0.19480327 -0.0060733696 0.10926908 0.3498255 0.053548887 0.055208765 -0.069044806 0.08335565 -0.21788622 -0.24773377 -0.01080119 -0.17225596 -0.1269581 -0.110588156 0.36342448
3721 0.16680957 -0.14608993 0.06699741 0.31861725 0.098344915 -0.053939413 0.030048981 0.020359507 -0.6186514 -0.075070076 0.08087613 -0.014661804 0.08406961 -0.18691021 0.09817561 0.540126 0.029701479 0.05634242 -0.14162424 0.2707222 -0.019879544 0.054898165 0.16415703 -0.16970386 -0.024220623 0.08754231 -0.120450534 -0.07674888 -0.22657567 -0.029341228 0.0491652 0.13347581 -0.11756204 0.031307813 -0.13488464 -0.11970426 0.09343461 -0.016703783 -0.076696254 -0.13957088 -0.11234435 -0.13856208 0.08841832 -0.21332067 0.13802496 -0.25574625 -0.19918486 -0.10392241 0.15378766 0.28907606 0.080820605 0.09154751 0.17406909 0.08577924 0.22292341 -0.10991469 0.31209674 0.015387248 -0.16568801 0.15129665 -0.3847638 -0.038547084 -0.21564987 0.16714258
0017 0.30530587 -0.28113183 0.0017376374 0.25276178 0.02427008 -0.22992763 0.050784115 -0.021568788 -0.3428869 0.10013536 -0.08667879 -0.083706506 0.01041353 -0.01917586 -0.014365009 0.3797639 0.025413351 0.10209718 0.0053234017 0.3761705 0.17583051 0.19070241 0.08186452 -0.28084686 0.12615423 0.24021673 0.07349267 -0.16443099 -0.13513882 -0.14875191 -0.031784713 0.08070869 -0.019771285 -0.024190163 -0.15618956 -0.047842667 0.26128784 -0.19089234 0.13485785 0.08881586 -0.081091136 -0.07822871 0.113484114 -0.20929754 0.1660539 -0.036931034 -0.14828518 -0.3122844 0.177151 0.27362317 0.01684206 -0.0643251 -0.03535667 0.09773301 0.030468298 -0.034397017 0.070563994 -0.36916408 -0.2016594 0.120836414 -0.30482587 -0.029830217 0.15704098 -0.0311708
3404 0.12646624 -0.09682133 0.07030605 0.2755262 0.16120751 -0.25372565 0.14692901 -0.25669077 -0.31049955 0.07174197 0.0024417234 -0.24447955 -0.02730635 -0.15271057 -0.14226352 0.30055556 -0.29785785 0.111719474 0.13379921 0.28358704 0.11628621 0.05250568 -0.084864415 -0.19004242 0.013758353 0.006349177 -0.21518129 -0.003553633 -0.13487469 -0.054359917 0.07161925 0.039536245 -0.12682383 0.0038409843 -0.24291289 -0.07386864 0.32392672 -0.1955012 -0.051748004 -0.120925784 -0.09503225 0.1370882 -0.17524613 -0.04833908 0.065255836 -0.062277112 -0.09545965 -0.26178366 -0.073134474 0.25020173 0.076160945 0.23897019 0.10534957 0.21101448 0.015221699 -0.1641902 0.11666721 -0.27488628 -0.2424933 -0.07334209 -0.3147469 -0.19762528 0.008196039 0.18629722
3727 0.23688388 -0.18971612 0.15179779 0.11957848 0.13802178 0.27185345 -0.015431483 0.042113382 -0.57360053 -0.093916655 -0.102371156 -0.20082214 -0.17735839 0.12026795 -0.08937347 0.4361132 -0.13795944 0.17663053 -0.18689781 0.11607846 0.060191244 0.08988031 0.25837004 -0.49328256 -0.027002111 0.00970861 0.02116343 0.03458656 -0.17827316 0.0738513 0.10128407 0.12721445 0.12181497 -0.1336731 -0.29508817 -0.19453368 0.35419574 0.020326218 -0.11614154 -0.046819985 -0.098983586 -0.14269716 0.0024276478 0.022649262 0.23312268 -0.24376364 -0.2374549 -0.23937725 -0.122041695 0.15660301 -0.11689617 -0.023376118 0.28145608 0.017932286 0.16424704 0.055566788 0.17003055 -0.15545638 -0.08949627 0.12224287 -0.10557929 -0.08013724 -0.015681999 0.2867105
9960 0.22728431 -0.08431784 0.02691425 0.1446949 0.15678114 0.03412458 0.07477133 -0.24682133 -0.5147583 0.026582472 -4.560526e-05 -0.30141288 -0.2885102 -0.00031098162 -0.06465508 0.3062384 -0.15264888 0.15143718 -0.052837726 0.33344394 0.19382614 0.2865627 0.1932032 -0.27875966 0.0705927 -0.14930634 0.18324709 -0.18950254 -0.0178505 -0.019809922 0.08240228 -0.11566771 -0.0818173 0.0800856 -0.0104145985 -0.20993657 0.01443176 0.059790142 -0.039911628 -0.10747694 -0.123049475 -0.11730248 -0.064560086 -0.070006154 0.4396157 -0.10897705 -0.0071365717 -0.17459027 0.2636028 0.17134604 -0.24732935 -0.17963265 0.4063733 -0.068291195 0.16288832 -0.09745392 0.2466328 -0.16614482 -0.18444487 -0.014298254 -0.09006416 -0.03576267 -0.05226751 0.24211103
3607 0.020227272 0.016046142 0.20182544 0.24929526 0.07367911 -0.23701562 0.10966973 0.045807023 -0.2870799 0.013028535 0.072442435 -0.27482015 -0.023513308 0.07328547 0.12041263 0.26841146 -0.29053763 -0.14729266 -0.1903499 0.45964086 0.43655434 0.13502836 0.20206334 -0.25990698 0.028234847 -0.074987754 -0.19513611 -0.041627306 0.068039626 -0.18548368 0.027973266 0.06906111 0.16622218 -0.11483132 -0.08042084 -0.15469797 0.07618034 -0.08595925 0.032691997 0.08605026 0.02675676 0.06651454 0.111360714 0.018062301 -0.0099760555 0.0055149244 -0.28798366 -0.21007714 0.09700099 -0.06852498 0.11838368 -0.039414685 0.37707242 0.06750873 0.22624665 -0.039182812 -0.058027826 -0.10634644 -0.1728697 -0.005901822 -0.14841416 -0.0053264005 0.038455494 0.12883517
3323 0.23750126 -0.1900373 -0.0041588065 0.39297718 0.13925298 -0.32193142 -0.002888342 -0.037780706 -0.41056052 0.009490187 0.16200249 -0.29579425 -0.11186653 0.07127596 -0.031169677 0.4462885 -0.19035746 0.008307873 -0.25309077 0.33442715 0.02974418 0.11597016 0.25735807 -0.21765032 0.18604816 0.032898877 -0.17254853 -0.18752998 -0.071981244 -0.20793436 0.1287972 0.01443791 -0.052354433 0.01598217 -0.08159724 -0.10078268 -0.13036355 0.0930404 -0.16663991 -0.033896707 -0.28551114 -0.035180446 -0.13652787 0.040159896 0.17190802 -0.14055692 -0.052356374 -0.16894916 -0.03194655 -0.002079224 -0.039711963 0.057865165 -0.03273887 0.19276804 0.014408377 -0.15134107 -0.004102261 -0.20812093 -0.14652786 -0.12258889 -0.2138987 -0.22896937 0.027798869 0.12528564
3612 -0.08650746 -0.07593999 0.0759111 0.16638382 0.20014334 -0.3178626 0.045209557 -0.26053652 -0.48815504 0.12084342 -0.009789663 -0.30758005 -0.1540845 -0.024094965 -0.05335591 0.16353187 -0.06058117 -0.13022196 -0.045149364 0.4976932 0.097594276 0.08026742 -0.020983236 -0.10684454 -0.04607156 0.16818328 -0.27026945 0.11897583 0.008350343 -0.05501855 0.11406842 0.023155088 -0.044341426 -0.05720112 -0.22641411 -0.08131865 0.11782361 -0.0075487387 0.041067638 -0.17831342 0.005543416 0.079045705 -0.10062044 0.08342284 0.0153625645 -0.08269243 -0.15198399 -0.09615838 0.09861603 -0.06433494 0.13149104 0.045584302 0.3481339 -0.19945405 0.14777167 0.032451145 0.15244381 -0.28217223 -0.1707274 -0.095503554 -0.33262393 -0.21149632 -0.22556648 0.2834001
